, -0.082752 0.67204 -0.14987 -0.064983 0.056491 0.40228 0.0027747 -0.3311 -0.30691 2.0817 0.031819 0.013643 0.30265 0.0071297 -0.5819 -0.2774 -0.062254 1.1451 -0.24232 0.1235 -0.12243 0.33152 -0.006162 -0.30541 -0.13057 -0.054601 0.037083 -0.070552 0.5893 -0.30385 0.2898 -0.14653 -0.27052 0.37161 0.32031 -0.29125 0.0052483 -0.13212 -0.052736 0.087349 -0.26668 -0.16897 0.015162 -0.0083746 -0.14871 0.23413 -0.20719 -0.091386 0.40075 -0.17223 0.18145 0.37586 -0.28682 0.37289 -0.16185 0.18008 0.3032 -0.13216 0.18352 0.095759 0.094916 0.008289 0.11761 0.34046 0.03677 -0.29077 0.058303 -0.027814 0.082941 0.1862 -0.031494 0.27985 -0.074412 -0.13762 -0.21866 0.18138 0.040855 -0.113 0.24107 0.3657 -0.27525 -0.05684 0.34872 0.011884 0.14517 -0.71395 0.48497 0.14807 0.62287 0.20599 0.58379 -0.13438 0.40207 0.18311 0.28021 -0.42349 -0.25626 0.17715 -0.54095 0.16596 -0.036058 0.08499 -0.64989 0.075549 -0.28831 0.40626 -0.2802 0.094062 0.32406 0.28437 -0.26341 0.11553 0.071918 -0.47215 -0.18366 -0.34709 0.29964 -0.66514 0.002516 -0.42333 0.27512 0.36012 0.16311 0.23964 -0.05923 0.3261 0.20559 0.038677 -0.045816 0.089764 0.43151 -0.15954 0.08532 -0.26572 -0.15001 0.084286 -0.16714 -0.43004 0.060807 0.13121 -0.24112 0.66554 0.4453 -0.18019 -0.13919 0.56252 0.21457 -0.46443 -0.012211 0.029988 -0.051094 -0.20135 0.80788 0.47377 -0.057647 0.46216 0.16084 -0.20954 -0.05452 0.15572 -0.13712 0.12972 -0.011936 -0.003378 -0.13595 -0.080711 0.20065 0.054056 0.046816 0.059539 0.046265 0.17754 -0.31094 0.28119 -0.24355 0.085252 -0.21011 -0.19472 0.0027297 -0.46341 0.14789 -0.31517 -0.065939 0.036106 0.42903 -0.33759 0.16432 0.32568 -0.050392 -0.054297 0.24074 0.41923 0.13012 -0.17167 -0.37808 -0.23089 -0.019477 -0.29291 -0.30824 0.30297 -0.22659 0.081574 -0.18516 -0.21408 0.40616 -0.28974 0.074174 -0.17795 0.28595 -0.039626 -0.2339 -0.36054 -0.067503 -0.091065 0.23438 -0.0041331 0.003232 0.0072134 0.008697 0.21614 0.049904 0.35582 0.13748 0.073361 0.14166 0.2412 -0.013322 0.15613 0.083381 0.088146 -0.019357 0.43795 0.083961 0.45309 -0.50489 -0.10865 -0.2527 -0.18251 0.20441 0.13319 0.1294 0.050594 -0.15612 -0.39543 0.12538 0.24881 -0.1927 -0.31847 -0.12719 0.4341 0.31177 -0.0040946 -0.2094 -0.079961 0.1161 -0.050794 0.015266 -0.2803 -0.12486 0.23587 0.2339 -0.14023 0.028462 0.56923 -0.1649 -0.036429 0.010051 -0.17107 -0.042608 0.044965 -0.4393 -0.26137 0.30088 -0.060772 -0.45312 -0.19076 -0.20288 0.27694 -0.060888 0.11944 0.62206 -0.19343 0.47849 -0.30113 0.059389 0.074901 0.061068 -0.4662 0.40054 -0.19099 -0.14331 0.018267 -0.18643 0.20709 -0.35598 0.05338 -0.050821 -0.1918 -0.37846 -0.06589
the 0.27204 -0.06203 -0.1884 0.023225 -0.018158 0.0067192 -0.13877 0.17708 0.17709 2.5882 -0.35179 -0.17312 0.43285 -0.10708 0.15006 -0.19982 -0.19093 1.1871 -0.16207 -0.23538 0.003664 -0.19156 -0.085662 0.039199 -0.066449 -0.04209 -0.19122 0.011679 -0.37138 0.21886 0.0011423 0.4319 -0.14205 0.38059 0.30654 0.020167 -0.18316 -0.0065186 -0.0080549 -0.12063 0.027507 0.29839 -0.22896 -0.22882 0.14671 -0.076301 -0.1268 -0.0066651 -0.052795 0.14258 0.1561 0.05551 -0.16149 0.09629 -0.076533 -0.049971 -0.010195 -0.047641 -0.16679 -0.2394 0.0050141 -0.049175 0.013338 0.41923 -0.10104 0.015111 -0.077706 -0.13471 0.119 0.10802 0.21061 -0.051904 0.18527 0.17856 0.041293 -0.014385 -0.082567 -0.035483 -0.076173 -0.045367 0.089281 0.33672 -0.22099 -0.0067275 0.23983 -0.23147 -0.88592 0.091297 -0.012123 0.013233 -0.25799 -0.02972 0.016754 0.01369 0.32377 0.039546 0.042114 -0.088243 0.30318 0.087747 0.16346 -0.40485 -0.043845 -0.040697 0.20936 -0.77795 0.2997 0.2334 0.14891 -0.39037 -0.053086 0.062922 0.065663 -0.13906 0.094193 0.10344 -0.2797 0.28905 -0.32161 0.020687 0.063254 -0.23257 -0.4352 -0.017049 -0.32744 -0.047064 -0.075149 -0.18788 -0.015017 0.029342 -0.3527 -0.044278 -0.13507 -0.11644 -0.1043 0.1392 0.0039199 0.37603 0.067217 -0.37992 -1.1241 -0.057357 -0.16826 0.03941 0.2604 -0.023866 0.17963 0.13553 0.2139 0.052633 -0.25033 -0.11307 0.22234 0.066597 -0.11161 0.062438 -0.27972 0.19878 -0.36262 -1.0006e-05 -0.17262 0.29166 -0.15723 0.054295 0.06101 -0.39165 0.2766 0.057816 0.39709 0.025229 0.24672 -0.08905 0.15683 -0.2096 -0.22196 0.052394 -0.01136 0.050417 -0.14023 -0.042825 -0.031931 -0.21336 -0.20402 -0.23272 0.07449 0.088202 -0.11063 -0.33526 -0.014028 -0.29429 -0.086911 -0.1321 -0.43616 0.20513 0.0079362 0.48505 0.064237 0.14261 -0.43711 0.12783 -0.13111 0.24673 -0.27496 0.15896 0.43314 0.090286 0.24662 0.066463 -0.20099 0.1101 0.03644 0.17359 -0.15689 -0.086328 -0.17316 0.36975 -0.40317 -0.064814 -0.034166 -0.013773 0.062854 -0.17183 -0.12366 -0.034663 -0.22793 -0.23172 0.239 0.27473 0.15332 0.10661 -0.060982 -0.024805 -0.13478 0.17932 -0.37374 -0.02893 -0.11142 -0.08389 -0.055932 0.068039 -0.10783 0.1465 0.094617 -0.084554 0.067429 -0.3291 0.034082 -0.16747 -0.25997 -0.22917 0.020159 -0.02758 0.16136 -0.18538 0.037665 0.57603 0.20684 0.27941 0.16477 -0.018769 0.12062 0.069648 0.059022 -0.23154 0.24095 -0.3471 0.04854 -0.056502 0.41566 -0.43194 0.4823 -0.051759 -0.27285 -0.25893 0.16555 -0.1831 -0.06734 0.42457 0.010346 0.14237 0.25939 0.17123 -0.13821 -0.066846 0.015981 -0.30193 0.043579 -0.043102 0.35025 -0.19681 -0.4281 0.16899 0.22511 -0.28557 -0.1028 -0.018168 0.11407 0.13015 -0.18317 0.1323
and -0.18567 0.066008 -0.25209 -0.11725 0.26513 0.064908 0.12291 -0.093979 0.024321 2.4926 -0.017916 -0.071218 -0.24782 -0.26237 -0.2246 -0.21961 -0.12927 1.0867 -0.66072 -0.031617 -0.057328 0.056903 -0.27939 -0.39825 0.14251 -0.085146 -0.14779 0.055067 -0.0028687 -0.20917 -0.070735 0.22577 -0.15881 -0.10395 0.09711 -0.56251 -0.32929 -0.20853 0.0098711 0.049777 0.0014883 0.15884 0.042771 -0.0026956 -0.02462 -0.19213 -0.22556 0.10838 0.090086 -0.13291 0.32559 -0.17038 -0.1099 -0.23986 -0.024289 0.014656 -0.237 0.084828 -0.35982 -0.076746 0.048909 0.11431 -0.21013 0.24765 -0.017531 -0.14028 0.046191 0.22972 0.1175 0.12724 0.012992 0.4587 0.41085 0.039106 0.15713 -0.18376 0.26834 0.056662 0.16844 -0.053788 -0.091892 0.11193 -0.08681 -0.13324 0.15062 -0.31733 -0.22078 0.25038 0.34131 0.36419 -0.089514 -0.22193 0.24471 0.040091 0.47798 -0.029996 0.0019212 0.063511 -0.20417 -0.26478 0.20649 0.015573 -0.27722 -0.18861 -0.10289 -0.49773 0.14986 -0.010877 0.25085 -0.28117 0.18966 -0.065879 0.094753 -0.15338 -0.055071 -0.36747 0.24993 0.096527 0.23538 0.18405 0.052859 0.22967 0.12582 0.15536 -0.17275 0.33946 -0.10049 0.074948 -0.093575 -0.04049 -0.016922 -0.0058039 -0.18108 0.19537 0.45178 0.10965 0.2337 -0.09905 -0.078633 0.21678 -0.71231 -0.099759 0.33333 -0.1646 -0.091688 0.21056 0.023669 0.028922 0.1199 -0.12512 -0.026037 -0.062217 0.55816 0.0050273 -0.30888 0.038611 0.17568 -0.11163 -0.10815 -0.19444 0.29433 0.14519 -0.042878 0.18534 0.018891 -0.61883 0.13352 0.036007 0.33995 0.22109 -0.079328 0.071319 0.17678 0.16378 -0.23142 -0.1434 -0.098122 -0.019286 0.2356 -0.34013 -0.061007 -0.23208 -0.31152 0.10063 -0.15957 0.20183 -0.016345 -0.12303 0.022667 -0.20986 -0.20127 -0.087883 0.064731 0.10195 -0.1786 0.33056 0.21407 -0.32165 -0.17106 0.19407 -0.38618 -0.2148 -0.052254 0.023175 0.47389 0.18612 0.12711 0.20855 -0.10256 -0.12016 -0.40488 0.029695 -0.027419 -0.0085227 -0.11415 0.081134 -0.17228 0.19142 0.026514 0.043789 -0.12399 0.13354 0.10112 0.081682 -0.15085 0.0075806 -0.18971 0.24669 0.22491 0.35553 -0.3277 -0.21821 0.1402 0.28604 0.055226 -0.086544 0.02111 -0.19236 0.074245 0.076782 0.00081666 0.034097 -0.57719 0.10657 0.28134 -0.11964 -0.68281 -0.32893 -0.24442 -0.025847 0.0091273 0.2025 -0.050959 -0.11042 0.010962 0.076773 0.40048 -0.40739 -0.44773 0.31954 -0.036326 -0.012789 -0.17282 0.1476 0.2356 0.080642 -0.36528 -0.0083443 0.6239 -0.24379 0.019917 -0.28803 -0.010494 0.038412 -0.11718 -0.072462 0.16381 0.38488 -0.029783 0.23444 0.4532 0.14815 -0.027021 -0.073181 -0.1147 -0.0054545 0.47796 0.090912 0.094489 -0.36882 -0.59396 -0.097729 0.20072 0.17055 -0.0047356 -0.039709 0.32498 -0.023452 0.12302 0.3312
a 0.043798 0.024779 -0.20937 0.49745 0.36019 -0.37503 -0.052078 -0.60555 0.036744 2.2085 -0.23389 -0.06836 -0.22355 -0.053989 -0.15198 -0.17319 0.053355 1.6485 -0.047991 -0.085311 -0.15712 -0.64425 -0.39819 0.278 0.15364 0.031678 0.055414 0.015939 0.31851 -0.058979 0.038584 0.1077 0.1041 -0.077346 0.37396 -0.21482 0.3832 -0.27737 -0.18352 -0.83838 0.34124 0.58164 0.18543 -0.31028 0.17666 -0.069421 -0.34422 -0.13665 -0.10823 0.23637 -0.32923 0.61348 0.1972 0.087123 0.10785 0.3073 0.13757 0.30809 0.24331 -0.29422 -0.0098214 0.55675 -0.04888 0.099468 0.30543 -0.37597 -0.19525 0.046246 -0.036675 0.34023 0.14905 0.0978 -0.26664 0.056834 -0.043201 -0.23338 0.13111 -0.35742 -0.3607 0.30997 -0.19727 -0.1432 -0.16747 0.00042435 -0.1512 0.067562 -0.38644 0.025349 0.24918 -0.23955 -0.15615 0.49868 0.0082758 -0.1912 -0.14906 0.48757 -0.015281 0.010196 0.37642 -0.01946 -0.27835 0.16355 -0.24127 -0.21405 -0.21562 -0.79697 0.34321 0.093209 0.073977 -0.27147 0.20539 0.15061 0.020734 0.11267 0.028714 0.2967 -0.21267 0.43214 0.12788 0.29249 0.19056 -0.29113 -0.11382 -0.038242 -0.2029 0.18301 -0.16661 -0.27116 0.0012685 0.071704 -0.18583 0.08985 -0.039895 0.39479 0.0053211 -0.00061548 -0.27082 -0.089782 -0.2879 -0.14865 -1.3746 0.16515 0.20598 0.15252 0.034723 -0.38531 -0.094574 -0.19871 0.50239 -0.28702 -0.088727 0.056881 0.13634 0.19034 -0.19353 0.40506 -0.19317 0.22908 0.10055 -0.26895 -0.034727 -0.08401 0.057806 0.011076 -0.043349 -0.26917 -0.19333 0.22181 0.26123 -0.11761 0.10092 -0.15078 0.47153 0.11253 -0.26749 -0.038785 -0.03652 -0.089248 -0.24427 -0.041381 -0.021785 -0.35738 -0.063409 -0.53983 -0.010112 0.00041238 -0.097049 0.42628 -0.21349 -0.41055 -0.2494 -0.033571 -0.4954 0.15557 0.19882 0.10498 -0.24372 0.11429 -0.039279 -0.36258 0.10318 0.129 -0.41785 -0.041607 0.33522 0.073186 0.13362 0.010812 0.052645 0.18801 -0.30185 0.20333 -0.32258 -0.24673 0.21124 0.79132 -0.41539 0.3622 0.099852 -0.035378 -0.0419 -0.13851 -0.063255 0.13635 0.090863 -0.3994 0.099062 0.3221 -0.12256 -0.085906 -0.10218 0.2635 -0.18689 -0.1856 -0.43923 -0.325 -0.1991 0.17831 -0.27283 0.33473 0.082382 0.12825 0.39275 -0.034929 0.16148 -0.026713 0.40129 -0.39503 -0.064823 -0.08982 -0.066592 -0.34537 0.046283 0.36837 -0.024573 0.32213 0.30641 -0.28112 0.0066449 0.087743 -0.03417 0.60373 0.4212 -0.073349 0.26682 -0.1586 0.23765 -0.0062604 0.15236 -0.23409 0.31634 -0.08786 -0.15747 -0.24955 -0.18766 -0.096743 -0.27994 -0.24334 0.32643 0.29906 0.42763 0.22266 -0.17464 -0.019916 -0.31206 -0.34009 -0.14993 -0.28818 0.1475 -0.040503 -0.10347 0.0033634 0.2176 -0.20409 0.092415 0.080421 -0.061246 -0.30099 -0.14584 0.28188
of 0.060216 0.21799 -0.04249 -0.38618 -0.15388 0.034635 0.22243 0.21718 0.0068483 2.4375 -0.27418 0.13572 0.31086 -0.063206 0.00038225 -0.18597 -0.19333 1.4447 -0.38541 -0.28549 0.075627 -0.036799 -0.46068 -0.016835 0.19821 -0.092746 0.18954 -0.00032648 -0.17081 0.50359 0.46256 0.26901 -0.12256 0.24713 0.069305 -0.20777 -0.4456 0.30223 -0.0098344 0.32772 0.11038 0.41271 -0.15854 -0.056983 0.38918 -0.21158 -0.13307 0.40406 0.1749 0.053949 0.10984 -0.18476 -0.054014 0.040112 -0.10175 0.12662 0.069709 -0.24071 -0.20995 -0.051381 0.28219 0.18598 -0.5018 0.27572 -0.18497 -0.18399 0.15696 -0.038444 -0.52238 0.22753 0.048672 -0.078837 0.065448 0.18399 0.40211 -0.12745 -0.12302 0.31072 0.099588 0.036047 -0.25946 0.36128 0.12748 -0.18667 0.16502 -0.3912 -0.67549 0.11291 0.040743 0.034973 -0.04091 -0.039791 -0.40544 -0.015867 0.10239 0.046868 -0.082776 0.015132 -0.14899 -0.25125 0.25244 -0.11851 -0.34127 0.016516 0.30405 -0.541 0.305 0.39065 0.42362 -0.41721 -0.054247 -0.26014 -0.14048 -0.14166 -0.02105 0.050822 -0.078053 0.45922 0.17598 -0.0157 0.09118 0.034263 -0.49995 0.028574 0.12068 0.19781 -0.013025 -0.22418 0.12503 0.14653 -0.23085 0.21987 -0.059321 -0.088169 -0.1252 0.0075112 -0.22421 0.6214 0.2009 -0.02899 -0.65073 0.0053506 -0.12073 0.20988 -0.1684 0.041826 0.054582 0.35247 0.2006 0.031903 -0.053307 -0.44009 0.22495 -0.30616 -0.32855 -0.015779 -0.13913 0.34309 -0.13569 -0.22276 0.14295 0.05501 -0.10616 0.23597 -0.20701 -0.30963 0.13528 -0.16144 0.29108 0.12301 0.2365 -0.26153 0.31022 0.20612 -0.19885 0.10971 -0.0018054 0.14621 0.15177 -0.4468 0.0067433 -0.028784 0.13821 -0.16566 -0.45517 0.016623 0.10703 -0.48399 0.040033 0.049625 -0.26454 -0.1468 0.13651 0.15261 0.067522 0.50405 -0.18848 0.15256 -0.26997 0.055578 0.047077 -0.17848 -0.33567 -0.03148 0.19107 0.18818 0.18778 0.18313 -0.364 -0.0054127 -0.15763 0.16386 -0.084828 -0.19838 -0.40454 0.41031 -0.41393 0.029771 0.10544 -0.11295 -0.068076 -0.22372 -0.19084 -0.080269 -0.38345 0.064712 0.23111 0.21408 0.28038 0.14221 -0.20696 0.015874 -0.14112 0.089859 -0.21533 -0.020105 0.22703 0.083425 -0.2958 0.018036 0.19885 0.17794 0.13688 -0.10302 0.029651 0.051271 -0.14787 -0.41824 0.019828 -0.26385 -0.074654 -0.015718 0.48094 0.12492 -0.11409 0.58127 0.095836 -0.095912 -0.057435 0.13883 0.10307 0.081362 -0.4669 0.50705 0.021685 -0.071623 -0.063827 -0.11154 0.61792 -0.56329 0.023565 0.18041 -0.2578 -0.50956 0.14737 -0.033317 -0.037053 0.24062 0.12641 -0.027091 0.4039 -0.02836 -0.022235 -0.11493 -0.2285 -0.05746 0.2952 -0.21914 -0.13307 -0.23647 -0.42484 0.11606 0.0048131 -0.39629 -0.26823 0.3292 -0.17597 0.11709 -0.16692 -0.094085
to 0.31924 0.06316 -0.27858 0.2612 0.079248 -0.21462 -0.10495 0.15495 -0.03353 2.4834 -0.50904 0.08749 0.21426 0.22151 -0.25234 -0.097544 -0.1927 1.3606 -0.11592 -0.10383 0.21929 0.11997 -0.11063 0.14212 -0.16643 0.21815 0.0042086 -0.070012 -0.23532 -0.26518 0.031248 0.16669 -0.089777 0.20059 0.31614 -0.5583 0.075735 0.27635 0.12741 -0.18185 -0.12722 0.024686 -0.077233 -0.48998 0.020355 0.0039164 0.1215 0.089723 -0.078975 0.081443 -0.099087 -0.055621 0.10737 -0.0044042 0.48496 0.11717 -0.017329 0.109 -0.35558 0.051084 0.15714 0.17961 -0.29711 0.033645 -0.025792 -0.013931 -0.23 -0.040306 0.22282 -0.013544 0.011554 0.3911 0.26533 -0.31012 0.40539 -0.042975 0.020811 -0.33033 0.19573 -0.037958 0.10274 -0.0013581 -0.44505 0.077886 0.08511 -0.20285 -0.19481 0.056933 0.53105 0.034154 -0.56996 -0.18469 0.093403 0.28044 -0.23349 0.10938 -0.014288 -0.274 0.034196 -0.098479 0.13268 0.19437 0.13463 -0.099059 0.040324 -0.66272 0.3571 0.15429 0.18598 0.087542 0.080538 -0.25121 0.24155 0.1783 0.036011 -0.027677 0.21161 -0.29107 -0.0083456 0.11317 0.31064 -0.10693 -0.27367 -0.039785 0.039881 0.034462 -0.16518 0.16115 0.060826 0.3075 -0.22398 0.14619 -0.2661 0.49732 -0.13996 -0.24287 0.039469 -0.084495 -0.24315 0.070701 -1.0136 -0.21733 -0.36878 -0.24973 0.17472 -0.011592 0.068561 -0.090411 0.21878 -0.2639 0.11904 0.14285 -0.18707 -0.13474 -0.13232 -0.26553 0.22947 -0.018215 0.0067383 -0.1019 0.10053 -0.1127 -0.13295 0.15951 0.14906 -0.095578 0.26992 0.011057 0.056568 0.021386 0.20215 0.00048589 0.5336 -0.22947 0.29275 0.17378 0.25423 -0.10976 0.058816 0.014616 -0.04306 0.10732 -0.028149 -0.19181 0.1025 -0.063892 0.012737 -0.12913 0.015037 0.26562 -0.017049 -0.060716 -0.094919 0.017775 0.13221 0.1683 -0.19323 -0.17612 0.075506 0.18939 0.12508 -0.1988 -0.16017 -0.21092 0.46933 0.044747 0.098349 0.011637 0.22281 -0.010837 -0.04833 -0.47335 -0.36811 -0.13592 -0.15086 0.25416 0.069531 0.14211 -0.26703 -0.1259 0.12076 -0.26117 0.033024 -0.034398 -0.13968 0.13446 -0.16709 0.15002 -0.13724 0.091226 -0.27718 0.020098 0.26919 0.43016 0.094019 -0.085496 -0.25192 -0.11645 -0.039734 0.0046738 0.54178 -0.16636 0.34546 0.098501 0.47819 -0.38428 -0.3238 -0.14822 -0.47817 0.16704 -0.064505 0.11834 -0.3448 0.096891 0.32309 0.41471 0.19463 -0.20891 -0.12223 -0.058298 -0.20268 0.2948 0.043397 0.10112 0.27177 -0.52124 -0.073794 0.044808 0.41388 0.088782 0.62255 -0.072391 0.090129 0.15428 0.023163 -0.13028 0.061762 0.33803 -0.091581 0.21039 0.05108 0.19184 0.10444 0.2138 -0.35091 -0.23702 0.038399 -0.10031 0.18359 0.025178 -0.12977 0.3713 0.18888 -0.0042738 -0.10645 -0.2581 -0.044629 0.082745 0.097801 0.25045
's -0.06858 0.4647 0.13214 0.18599 -0.037015 0.32988 0.17865 -0.25977 -0.26022 2.5728 -0.25867 -0.66095 0.081984 0.010321 -0.12223 0.0094609 -0.088657 0.58367 -0.017465 -0.35569 -0.10182 0.061941 -0.14267 -0.40544 0.29834 0.10003 0.035899 0.2292 0.30278 -0.18259 -0.0011042 0.25792 -0.054132 0.15748 0.061311 -0.30055 0.33732 0.40023 0.042472 -0.30014 0.062963 0.072134 0.060897 -0.062527 0.27505 -0.13527 -0.2171 0.019315 0.038683 -0.12361 -0.07721 -0.1132 -0.09305 0.35217 0.193 0.048418 -0.20489 0.096088 0.077817 -0.37924 0.1129 -0.18285 -0.056815 0.37091 0.32133 -0.16343 -0.3029 0.20258 -0.19113 -0.041821 0.096427 0.28788 0.21868 0.11835 -0.58606 0.084765 0.040064 0.038934 -0.00041745 0.1288 0.032659 0.27487 0.32105 0.11337 0.23331 -0.2027 -0.75498 -0.21488 0.11081 -0.12337 -0.68252 0.46154 -0.18431 -0.40732 0.29356 0.18444 0.046945 -0.16625 0.28425 0.098857 0.14131 0.0099858 -0.077743 -0.041674 -0.16059 0.66496 0.3888 0.061784 -0.23028 -0.085093 0.15053 0.50199 -0.060354 0.0078031 -0.10188 0.18607 0.11777 -0.15382 0.1752 0.34421 0.061868 -0.058456 0.19939 0.24807 -0.12043 0.24495 -0.22755 -0.044586 -0.078157 -0.3729 -0.26008 -0.31267 0.465 -0.14188 -0.092598 0.067002 0.2238 0.50371 -0.41528 -0.035387 -1.115 0.10314 0.10069 0.2698 -0.086038 -0.18304 -0.111 0.33949 -0.15439 -0.060346 -0.07603 0.36591 0.07612 0.14184 -0.06635 -0.42175 -0.68802 0.1654 -0.15966 -0.082361 -0.37665 0.15192 -0.15739 0.075572 -0.093941 -0.53344 0.25038 -0.17772 0.56826 0.023024 -0.13049 -0.23437 -0.14206 -0.36676 -0.87881 -0.17991 0.61699 -0.054129 -0.041839 0.44565 0.071349 0.011386 -0.13037 -0.036068 -0.091853 0.28994 0.35194 0.018153 -0.27042 -0.38262 -0.41694 0.088887 -0.38843 0.091897 -0.16549 0.13396 0.12725 -0.30501 -0.089378 0.24039 -0.29861 -0.010235 0.011287 0.039926 0.22518 -0.014535 -0.14116 -0.10092 -0.11393 -0.42583 -0.15182 -0.4183 0.095807 -0.41133 0.30601 0.25951 -0.11851 -0.063935 -0.6816 -0.32533 -0.31124 0.265 -0.1704 -0.13757 -0.13244 -0.073419 -0.079024 0.072515 0.069922 0.29591 -0.32007 0.091738 -0.18087 0.071566 -0.20362 -0.19141 -0.085196 -0.47908 0.064813 -0.21795 -0.094415 0.53729 0.0083135 0.24061 0.045261 -0.081265 -0.038758 0.11975 -0.10087 -0.2278 -0.0663 -0.069051 0.26849 -0.16083 -0.16018 0.26183 -0.54176 0.031235 0.14158 0.14993 -0.31776 0.20251 -0.050593 0.14712 -0.016181 0.065722 -0.076293 -0.36481 0.44407 -0.066691 0.46171 0.039474 -0.44825 -0.40562 0.12919 0.035828 -0.029879 0.025034 0.25427 0.1706 0.23547 0.46183 -0.071739 0.11056 -0.50868 0.15953 -0.19542 0.22428 -0.098993 -0.30309 0.1326 0.15582 0.21946 -0.015946 0.16345 -0.26763 0.042565 -0.094786 0.28878 -0.25244
is -0.084961 0.502 0.0023823 -0.16755 0.30721 -0.23762 0.16069 -0.36786 -0.058347 2.499 -0.0023647 0.010732 -0.30422 0.084579 -0.040299 -0.41562 -0.024494 1.4691 -0.052932 -0.074413 -0.39244 -0.32535 -0.22333 0.0056823 0.35675 0.19445 0.056762 -0.045502 -0.28105 -0.058896 -0.098626 0.092177 0.33172 -0.039967 -0.11766 0.048373 -0.062241 -0.10413 0.00099263 -0.48925 0.34786 0.32724 0.13882 -0.19917 0.12995 0.060549 -0.23714 -0.51295 -0.37396 0.12902 0.055797 0.33444 -0.18025 -0.03474 0.28323 -0.095301 0.21143 -0.076149 0.15069 -0.17441 -0.0074768 -0.078287 -0.12751 0.22545 0.035101 -0.61015 -0.26812 0.061632 -0.30503 -0.13405 -0.44271 -0.1772 0.17663 -0.3121 -0.25722 -0.024858 0.072504 -0.079759 -0.19214 0.59602 0.1288 -0.074629 -0.15812 0.36394 0.23055 -0.42175 -0.090651 -0.30085 0.1794 -0.29786 -0.10642 0.47239 -0.13837 -0.10161 0.080134 0.040715 -0.36976 -0.037066 0.10436 0.17904 0.15702 -0.07467 -0.29431 0.12829 0.055211 -0.43906 -0.068231 0.097107 -0.28209 -0.086528 -0.24204 0.028734 -0.21509 0.027152 -0.17996 0.19317 -0.27929 0.29415 -0.10965 -0.10432 -0.5217 -0.046789 0.13743 -0.15518 -0.10359 0.18853 -0.12684 -0.67278 0.034483 -0.22937 -0.098073 -0.070157 0.084374 0.26594 0.23104 -0.29251 -0.087209 -0.23342 0.063759 -0.13556 -0.84046 0.24681 0.30498 0.35438 0.14137 -0.3672 0.23321 -0.15497 0.48364 0.014711 -0.24176 0.037589 0.19829 -0.069403 -0.0017362 0.041694 -0.34193 -0.20034 -0.45581 -0.12504 0.13954 0.032275 -0.005213 0.045422 -0.0026574 -0.26266 0.064168 -0.14231 0.00035709 -0.23253 0.027615 -0.074282 0.18671 -0.12994 -0.43731 0.1455 0.044838 -0.19022 -0.15401 0.14188 0.098269 -0.04293 -0.27478 -0.33224 -0.32167 -0.10509 -0.19816 -0.065097 -0.091251 0.19528 -0.33297 -0.15504 -0.47688 0.31985 0.19886 0.11501 0.055757 -0.054307 0.28851 0.27982 0.01396 -0.0012891 -0.23128 0.075396 0.043587 -0.13937 -0.062935 0.12568 0.095235 -0.085203 -0.24241 -0.048771 0.095937 -0.22347 0.23503 0.31517 -0.0149 0.21739 -0.19431 -0.23255 -0.22961 0.048297 0.1605 -0.0161 0.04277 -0.32367 0.1468 0.24551 0.075506 -0.039703 -0.10321 0.16194 0.27132 0.046348 -0.092743 -0.14929 0.27378 -0.36958 -0.4153 0.18402 -0.049775 0.06967 0.13447 0.17788 -0.047586 -0.36491 -0.13733 -0.48119 0.24681 -0.089842 0.037939 -0.18284 0.47012 -0.099584 -0.18365 -0.071821 0.41607 -0.18581 0.184 -0.029028 0.41228 0.022856 0.050915 -0.11911 0.081231 0.13845 0.046595 -0.043974 0.63601 0.0037101 0.093937 -0.093442 -0.47606 -0.26427 -0.023044 -0.058241 0.1144 -0.051702 0.35225 0.25341 0.57256 0.22867 0.0085401 -0.062531 -0.032118 -0.15647 -0.084344 0.076667 0.34515 -0.19452 0.087003 -0.078201 -0.069673 -0.16993 0.23598 0.2755 -0.06718 -0.21511 -0.26304 -0.0060173
that 0.09852 0.25001 -0.27018 -0.23186 0.022378 0.045321 -0.052444 -0.058867 -0.031937 3.0121 -0.023642 -0.077292 0.30742 0.073579 -0.33171 -0.16588 -0.020228 1.085 -0.42189 -0.24159 0.20511 0.025093 0.11497 -0.024636 -0.10416 0.19698 -0.20124 -0.036615 -0.15073 -0.25125 -0.16182 0.22131 -0.041937 0.064382 0.066347 -0.0069173 -0.13059 -0.037921 -0.13478 -0.095946 0.016818 0.26046 0.040114 -0.20923 0.23095 -0.059719 -0.38339 -0.10134 -0.10069 0.073018 -0.27729 0.08258 -0.073222 0.19346 0.23859 -0.052506 0.13046 -0.1345 -0.096133 -0.11073 0.098949 -0.0050032 -0.12383 0.35765 -0.11829 -0.22458 0.023951 0.24224 0.041263 0.11803 -0.0027008 0.020971 0.3115 -0.021006 -0.1889 -0.11755 -0.1038 -0.20398 -0.20374 0.34373 0.10465 0.12733 -0.34323 -0.21958 0.21851 -0.46476 -0.13259 -0.4958 0.29493 0.052023 -0.030517 0.0040759 -0.12702 0.29625 0.14591 0.051789 -0.093879 -0.085754 -0.18455 0.044252 0.058965 0.18165 -0.18175 -0.078165 0.069561 -1.285 -0.054441 0.15005 -0.16758 -0.055905 -0.03011 0.18919 -0.14799 -0.11013 0.072332 -0.064289 -0.16124 0.056683 0.17084 -0.1339 0.067247 -0.23344 0.023066 -0.10787 -0.086551 0.076817 -0.013164 -0.66599 0.080374 0.011884 -0.14544 0.057928 0.18992 0.038859 0.034437 0.1724 0.028254 -0.2956 0.18364 -0.0085466 -1.3864 0.26142 0.23629 0.2047 -0.062789 -0.16743 -0.13996 -0.043662 -0.040376 -0.18405 -0.13819 -0.15173 0.0082284 -0.060196 0.064731 -0.08564 -0.30603 -0.20295 -0.24928 -0.037877 -0.21733 0.22598 -0.12165 -0.12929 -0.17562 -0.042181 0.22738 0.0033748 0.22381 -0.10925 0.11977 -0.070582 0.10818 -0.15419 -0.068567 0.11879 0.032163 -0.12023 0.0015811 -0.031903 -0.19634 -0.012366 -0.10347 -0.13484 -0.23577 -0.0044767 0.12205 0.043512 -0.020441 0.14099 0.1091 -0.19912 -0.41783 0.2083 0.12752 0.10165 -0.18279 -0.12781 -0.11247 0.3266 -0.18286 -0.012189 -0.098733 -0.14702 0.19123 0.10175 0.066325 0.065839 -0.0069673 -0.017495 -0.10122 -0.12645 -0.17692 -0.074391 0.23176 0.2065 -0.32261 -0.016756 -0.22781 -0.26889 0.028889 0.11281 -0.087673 0.13235 0.20797 0.24392 0.088125 0.18456 -0.041869 0.18712 -0.12383 0.14974 -0.0022145 0.023455 -0.070194 0.023735 0.16384 -0.011675 -0.14943 0.31397 0.13872 0.035348 0.0062663 0.20222 0.32528 -0.38256 0.0085346 -0.41604 -0.058313 0.21325 0.098621 -0.26227 -0.0039877 0.00062827 -0.22198 0.13791 0.17525 0.082616 0.25852 -0.047226 0.40242 0.049074 -0.36251 0.099738 0.28844 0.13101 -0.058852 0.13985 0.74787 0.21331 0.14665 -0.074234 -0.023464 -0.13176 -0.023619 -0.071066 -0.16462 0.26197 0.37356 0.16785 0.15434 0.12311 0.068364 -0.042458 -0.083352 -0.14705 0.22365 0.051185 0.21317 -0.32661 -0.24267 0.11959 0.013652 -0.11243 -0.089702 -0.19614 -0.27097 -0.062639 0.24424 0.17779
in 0.089187 0.25792 0.26282 -0.029365 0.47187 -0.10389 -0.10013 0.08123 0.20883 2.5726 -0.67854 0.036121 0.13085 0.0012462 0.14769 0.26926 0.37144 1.3501 -0.11326 -0.23036 -0.26575 -0.18077 0.092455 -0.16215 0.15003 -0.34547 0.072295 0.40659 0.010021 -0.0079257 -0.11435 0.017008 -0.29789 0.19079 0.37112 -0.26588 0.16212 0.065469 -0.31781 -0.03226 0.081969 0.3445 -0.17362 -0.35745 0.054487 0.39941 0.13699 -0.022066 0.11025 -0.41898 0.1276 -0.095869 -0.17944 -0.17443 0.27302 -0.19464 0.26747 -0.28241 0.1638 -0.11518 0.013196 -0.10616 -0.36093 0.023634 0.13464 0.021652 -0.27094 -0.018737 0.10017 0.36071 -0.093951 0.47634 0.12874 0.0011868 0.1377 -0.14034 -0.1887 -0.16405 -0.15349 0.32347 -0.17616 0.3523 -0.023531 -0.19121 -0.054809 -0.099521 -0.30056 0.36632 -0.21509 0.074123 -0.20267 0.1286 -0.38111 -0.025482 0.45103 0.088633 0.36288 -0.23406 -0.086024 -0.50604 0.034242 0.43998 -0.083023 -0.11969 0.68686 -0.34115 0.21228 0.40039 0.26367 -0.37144 0.16206 -0.42854 0.078658 -0.2905 0.21727 -0.27484 0.35887 0.27055 -0.11326 -0.14848 -0.0050659 -0.076862 0.078621 -0.24922 0.42026 -0.069698 0.071595 0.0071665 0.27473 -0.15664 0.25713 -0.058461 -0.29733 -0.090996 0.5246 0.14889 -0.20883 -0.13004 -0.20022 0.4503 -0.34654 -0.26007 0.35247 -0.34757 0.033738 0.19907 -0.32912 -0.084689 0.65319 0.20954 0.079274 0.1086 0.0026466 -0.12843 -0.22811 0.051501 -0.27429 0.14505 -0.1843 -0.34825 -0.11701 0.34034 0.075848 0.08239 -0.39188 -0.022312 -0.080373 0.14477 0.29701 -0.10523 0.092893 0.029813 -0.11761 0.16308 0.098382 0.46152 -0.162 -0.2456 0.20293 -0.11344 0.057902 -0.19528 -0.20141 -0.22874 -0.014101 0.2637 -0.10028 -0.051896 0.18859 -0.17767 -0.11556 0.121 0.17303 0.11773 0.034837 0.28485 -0.30447 0.061024 -0.26442 -0.081135 -0.044524 -0.036931 -0.15217 0.29175 0.44926 -0.28875 0.33193 -0.01242 -0.18805 -0.19832 -0.19736 0.26893 0.11106 -0.67383 -0.1518 -0.16615 -0.16563 0.0093671 -0.15945 -0.33468 0.22038 -0.16724 -0.1535 -0.61782 -0.17258 0.088928 0.019411 0.18296 0.32967 -0.0024906 -0.09208 0.514 0.0042484 -0.084377 -0.71448 -0.22148 -0.04835 0.043761 -0.29376 -0.22287 0.18001 0.072197 0.46499 0.056466 0.40844 -0.23641 -0.038946 0.087363 -0.21901 -0.3231 -0.19989 -0.3128 -0.067656 -0.22596 0.090926 0.28365 0.31462 0.46082 -0.024871 -0.14605 0.30454 0.17704 -0.011311 0.26807 -0.032461 -0.16644 -0.15313 -0.20426 -0.3082 -0.2459 0.085848 -0.11767 -0.063056 -0.18133 -0.18629 -0.17694 0.29618 0.35987 0.0020102 0.38616 0.36712 -0.055112 -0.34733 -0.072678 -0.051119 -0.29069 0.053598 0.019587 0.16808 -0.27456 -0.097179 -0.054541 0.19229 -0.48128 -0.20304 0.19368 -0.32546 0.14421 -0.169 0.26501
it 0.0013629 0.35653 -0.055497 -0.16607 0.0031402 -0.061926 -0.24759 -0.22897 -0.09105 2.6751 -0.15062 0.072403 0.0061949 -0.0065698 -0.26418 -0.19543 -0.15048 1.2156 -0.12551 -0.12572 0.023065 0.024727 0.14311 0.10148 -0.10566 0.07864 -0.10306 -0.11968 0.04202 -0.36815 -0.087136 0.38589 0.0044597 -0.18259 -0.1226 -0.10454 0.16039 0.27415 0.042427 -0.049497 0.041286 0.12223 0.10821 -0.056199 0.21754 0.10983 -0.38878 -0.10935 -0.36647 0.1342 -0.076634 0.38148 -0.19979 0.09391 0.35189 -0.11133 0.095313 -0.29593 0.29022 -0.1966 -0.10331 -0.21995 -0.041991 0.16631 0.01523 -0.29185 -0.05472 -0.040665 0.084861 -0.009206 0.24625 0.081873 0.34256 -0.16768 -0.079394 0.13206 0.2156 -0.11199 -0.39589 0.32299 0.089602 -0.026041 -0.23981 0.049861 0.055241 -0.50554 0.23002 -0.54613 0.58194 0.096957 -0.015559 0.069833 -0.009668 0.19936 0.19006 0.32913 -0.064844 -0.22404 -0.031196 0.1818 -0.071896 -0.072126 -0.082155 0.064145 0.11215 -1.0712 0.29581 0.081019 -0.24954 -0.087734 0.015893 -0.15779 0.055281 -0.080948 -0.11288 0.099631 -0.17395 0.1223 -0.099904 -0.20707 -0.014483 -0.10597 -0.0031063 0.04332 -0.20624 0.25975 -0.12992 -0.32278 0.17298 -0.15952 -0.19577 -0.22784 0.022428 0.19393 -0.059827 -0.011456 0.17045 -0.041847 -0.1288 -0.067707 -1.9181 0.29674 0.27561 0.29993 0.17498 -0.25321 -0.2017 0.13409 -0.049065 0.13186 -0.10889 0.23631 0.17895 0.024289 0.0092826 -0.29032 -0.27692 -0.22906 -0.13153 0.10656 -0.25672 0.12929 0.10399 -0.098408 -0.42153 -0.1332 0.091175 0.040061 0.2084 -0.17849 -0.057709 -0.10256 -0.095817 -0.43439 -0.064794 0.12916 0.085435 -0.3746 -0.069798 0.020042 0.041425 -0.021527 -0.086333 -0.0095633 0.025466 -0.16101 -0.089574 -0.21178 0.088594 0.087381 0.052047 -0.20386 -0.29424 0.10097 0.076137 0.10431 -0.19752 -0.34268 0.058982 0.26035 -0.16364 0.03294 -0.30368 0.0734 0.071074 0.17129 -0.14442 -0.041817 0.20912 0.032747 -0.10649 -0.33475 0.0088305 -0.32619 0.21179 0.29881 -0.013775 -0.090821 -0.33841 -0.1129 0.12137 0.059202 -0.12133 -0.093398 0.15426 -0.032649 -0.11216 0.28842 -0.036565 -0.041662 -0.22413 0.060877 0.21641 0.30208 0.16084 -0.027118 0.26084 -0.090324 -0.1036 -0.01901 0.34244 0.025017 0.025958 0.21387 0.43512 -0.67789 -0.0039166 -0.30027 -0.058978 0.17072 0.14497 -0.19255 0.13603 -0.16038 -0.075959 0.2282 0.20681 -0.011637 0.086048 -0.034803 0.23821 0.21667 0.10353 -0.012959 0.36174 -0.12104 -0.033488 -0.030755 0.43549 0.1896 0.45975 -0.34826 -0.16406 -0.12197 -0.064298 0.19573 0.017949 -0.12379 -0.0081198 0.4002 0.17065 -0.10712 0.088398 -0.11473 -0.069708 -0.09321 0.25621 -0.035815 0.15968 -0.37266 -0.24035 -0.089325 0.10603 -0.16025 -0.054419 -0.30824 -0.26249 -0.11237 0.078259 0.22398
The -0.067679 0.094515 -0.25173 -0.24268 -0.61093 -0.053369 -0.16011 0.065661 0.38711 1.7319 -0.21416 -0.16725 0.67877 0.11467 0.089892 -0.28896 -0.21599 0.84076 -0.21379 -0.082397 -0.32398 -0.18884 0.091671 -0.075486 -0.26865 0.12073 -0.18144 -0.17914 -0.17649 -0.015046 -0.19119 0.37103 -0.098639 0.29904 0.6207 0.47856 0.084061 0.36065 0.041178 -0.18681 0.33391 0.22953 0.058778 -0.25661 -0.06217 -0.12071 -0.21245 -0.16719 0.10296 0.25053 0.3291 0.1514 0.059114 0.15218 -0.4143 -0.17578 -0.014512 -0.12864 -0.082863 -0.16931 0.098355 -0.10924 0.29973 0.36551 -0.49822 -0.19991 -0.080675 -0.23114 -0.17953 0.22371 0.15605 -0.20757 0.17401 0.15418 0.028842 0.072355 -0.31154 -0.077673 -0.011578 0.069149 0.3115 0.16186 -0.20408 -0.1005 0.039196 -0.32404 -1.4764 -0.08753 -0.27561 -0.14895 -0.21481 -0.030661 0.039768 -0.071693 0.30178 0.11348 0.31737 0.22505 0.21836 0.075883 -0.021919 -0.2841 -0.21965 0.13399 -0.10809 0.94109 0.15442 0.3451 -0.074486 -0.15814 0.03617 -0.0023327 0.42506 -0.087214 0.15897 0.25874 -0.45469 0.41148 -0.35302 0.15675 0.083243 -0.22722 -0.56023 -0.32631 -0.62353 -0.29161 0.17728 -0.23728 -0.32767 0.04634 -0.11996 -0.069379 0.022343 -0.043943 0.0083225 0.20589 0.1117 0.38425 0.28852 -0.69586 -0.612 -0.072631 -0.031335 0.10924 0.077516 -0.33722 0.28383 0.030917 0.40063 -0.26081 0.17303 0.10423 0.13492 0.20666 -0.03931 0.18286 -0.55008 0.024346 -0.37318 0.048517 0.15516 0.14042 0.07277 -0.20962 0.097232 -0.24215 0.53563 -0.4396 0.19234 0.00038804 0.11468 -0.027035 0.17055 -0.48132 -0.15324 -0.12085 0.35589 0.27489 0.02968 -0.11946 -0.086999 -0.1603 -0.20382 -0.17683 -0.01535 0.19171 -0.24196 -0.11611 -0.080453 -0.2661 -0.6636 -0.05442 -0.3544 0.18954 -0.13033 0.23109 -0.0055001 0.12923 -0.45368 0.26631 0.23959 0.1731 -0.19078 0.011373 0.26122 0.015398 0.29022 -0.087949 -0.40269 0.33131 0.063044 -0.0098295 -0.52163 -0.15558 0.045256 0.2356 -0.55125 0.38193 -0.01966 -0.11639 -0.085788 -0.0030226 -0.22573 0.23764 -0.11928 -0.10522 0.33857 0.10313 -0.035094 0.32931 0.2652 0.0036421 -0.082074 0.048564 -0.067007 0.13656 -0.090577 -0.51569 0.0053357 0.4511 -0.27279 -0.085697 0.35877 -0.29126 -0.10919 -0.23584 -0.022067 -0.19589 -0.095985 -0.31291 -0.25091 -0.15612 0.2425 -0.39197 -0.051485 0.41025 0.088128 0.0019359 0.29834 0.0027479 0.15092 -0.043578 0.025757 -0.19042 0.18125 -0.25514 0.16215 0.051839 0.22156 -0.22867 0.098635 -0.21925 -0.5488 -0.4799 0.23152 -0.088649 -0.23802 0.29052 0.21167 0.16344 0.3011 0.3974 -0.17273 -0.064466 0.037055 -0.14608 -0.29949 -0.1209 0.36974 -0.0036676 -0.53604 0.25009 -0.024844 0.029295 0.031403 0.045725 0.29442 -0.18488 -0.035434 -0.060077
as -0.10648 -0.016295 -0.22755 -0.18934 0.14167 0.27404 -0.028969 -0.3154 -0.4032 2.7085 0.15321 0.15345 -0.085798 -0.17395 -0.0059932 -0.044821 -0.027702 1.0713 -0.31542 -0.25109 -0.31534 0.014133 -0.38718 0.13518 -0.067774 0.34392 -0.2021 0.0017084 0.053716 -0.066964 0.12081 0.21121 0.036278 0.10395 0.13312 -0.29282 0.12094 0.096785 -0.13612 -0.14153 -0.0035055 0.23564 0.044989 -0.0029994 -0.060647 -0.15818 -0.3098 -0.25685 -0.077777 0.10374 -0.032998 0.1671 -0.17314 0.11451 0.066825 -0.00076626 0.021958 -0.028378 -0.14265 -0.24112 0.11367 -0.10256 0.023031 -0.027696 -0.069263 -0.15693 -0.026229 -0.14117 -0.050208 0.072067 0.13692 0.16498 -0.089294 0.08257 -0.12619 0.29701 0.1799 -0.12885 0.15327 0.2022 -0.040822 0.12186 -0.26206 -0.0018238 0.32863 -0.37791 -0.17301 -0.085302 -0.1274 -0.12985 0.099124 0.12756 0.2943 0.17452 0.26084 -0.40348 0.18599 -0.25534 0.035389 -0.37783 -0.11814 0.071124 -0.29684 -0.2138 -0.13155 -0.86324 -0.10318 -0.038374 0.13517 -0.041433 -0.16216 -0.11313 0.087611 -0.11195 0.064373 -0.21678 -0.061492 0.067132 -0.029096 0.0068107 -0.045581 -0.01513 -0.20084 -0.012069 -0.093236 0.20572 0.044586 -0.02084 -0.09629 0.078893 0.023459 -0.06862 0.05913 0.21674 -0.078315 0.21363 0.14314 -0.11269 0.21795 0.13473 -0.96633 0.089384 0.54565 -0.11909 0.026468 -0.015632 0.43335 -0.063477 0.17602 -0.112 -0.050678 0.0974 0.10835 -0.022863 -0.079371 -0.18613 -0.095579 0.096452 0.16985 -0.3172 -0.10339 -0.13775 0.13053 -0.37955 -0.09104 -0.47089 -0.021285 0.13461 0.18898 -0.13175 0.072037 0.10228 0.05289 0.10862 0.0083393 0.0064497 0.062593 0.010614 -0.49213 -0.081617 -0.016147 0.019622 -0.097198 -0.28358 -0.30155 0.011693 -0.15195 0.16121 0.25092 -0.01453 -0.071483 0.068883 -0.021714 0.11604 -0.15646 -0.068977 -0.2163 0.0194 -0.087162 0.23781 0.092504 -0.048853 -0.18378 0.14822 0.20719 0.14652 0.18217 -0.12638 -0.20504 0.202 -0.16742 -0.074659 0.070591 -0.28141 -0.096293 0.30172 0.1946 0.36951 -0.1786 -0.23215 0.043395 0.42423 0.0042782 0.15525 0.045669 0.29934 -0.035877 0.27884 -0.070911 0.1424 -0.33601 -0.036872 0.077823 0.0017128 -0.14294 -0.35338 0.0868 -0.14035 -0.012714 0.075596 0.21089 0.18058 -0.043142 -0.0098158 0.44935 -0.12383 -0.16641 -0.2236 0.15068 -0.11659 0.22787 0.15582 0.01769 -0.019982 0.086623 0.18547 0.28375 0.059658 0.093334 -0.070569 0.39621 0.41797 -0.011218 0.3101 0.020182 0.0067417 -0.035264 -0.39675 0.58749 -0.16479 0.30791 -0.30143 -0.26626 0.022925 -0.16963 0.12999 0.0021843 0.19784 -0.1035 0.33119 0.28959 0.20309 0.22411 -0.1662 -0.044593 -0.26372 0.094942 -0.32548 0.43998 0.13719 -0.15922 0.18396 0.055808 -0.12251 -0.1309 0.1607 -0.061876 -0.31343 0.087424 -0.1661
film 0.30708 -0.30603 0.43486 0.13947 0.4484 0.53089 -0.30113 -0.74636 0.037868 2.0457 -0.050182 0.77841 0.49875 -0.09557 -0.13601 0.008442 1.051 0.98744 -0.4421 -0.13352 -0.093228 -0.68711 0.27636 0.46805 0.29111 0.41588 -0.031347 -0.4472 -0.60263 -0.19559 0.013413 -0.62745 -0.088978 0.53213 0.12093 -0.29196 0.1811 0.027113 0.27471 -0.050442 0.79304 -0.092305 -0.043397 -0.65368 0.13063 -0.09487 0.12959 -0.088807 -0.060156 -0.22231 1.1069 -0.54418 -0.095274 -0.27044 -0.19946 0.029938 0.16227 -0.66392 -0.30099 -0.28747 -0.22228 0.10627 0.63336 0.42515 0.0031202 -0.91935 0.19072 0.16432 -0.21141 -0.45866 0.4956 -0.89504 -0.50531 0.29874 -0.24222 -0.10457 -0.43063 0.087393 1.0715 0.28805 0.22629 -0.072853 0.0086388 -0.28437 -0.050446 -0.32704 -1.3809 -0.48111 0.19416 -0.21837 -0.67421 -0.22194 -0.31033 0.57404 0.57258 0.00027526 0.13615 0.34244 -0.62925 0.3684 0.14869 0.19574 -0.70553 -0.25817 0.33624 -0.19674 -0.44896 -0.088821 -0.63292 -0.51358 -0.11416 0.57114 0.33784 -0.122 -0.38582 -0.3093 -0.06164 0.5041 0.48536 0.66203 -0.40595 -0.10161 -0.70068 -0.10066 0.30896 0.1722 0.32886 0.17316 -0.43845 -0.0032451 0.19313 0.09111 0.49229 0.034453 0.19468 0.13529 -0.39676 0.047394 0.016478 -0.16769 -2.6821 -0.40711 0.060663 0.22156 -0.25499 -0.26954 -0.13296 -0.38737 0.37795 0.29725 0.0066218 0.051814 -0.16126 -0.5394 -0.047442 -0.18299 -0.49947 -0.31117 -0.18883 0.27628 0.33902 -1.0531 0.30065 0.3738 -0.21088 -0.019068 -0.36326 -0.33669 0.17272 0.1564 0.16963 -1.2205 -0.42107 0.43841 0.34895 -0.06413 0.14612 -0.39304 0.2758 -0.67282 -0.00030251 0.12232 0.0048285 0.021907 0.40857 0.12281 -0.39892 0.96953 -0.4627 0.080432 -0.48836 0.071929 -0.068419 0.43528 -0.14788 -0.65673 -0.036861 -0.39318 -0.13056 -0.58811 0.83374 0.74144 0.0090919 -0.3332 0.049611 0.17711 -0.048602 0.17172 -0.14772 0.5954 0.4241 0.44767 -0.078701 -1.0539 -0.17738 0.5582 0.81135 0.069499 0.47678 -0.6233 -0.45607 0.45368 -0.028119 0.095552 -0.10556 0.22774 -0.25364 -0.6428 0.36177 -0.069833 -0.10555 0.033173 -0.076954 0.22134 -0.34377 0.073879 -0.096379 0.43053 -0.21187 0.033316 0.47982 0.28208 0.25774 -0.33945 0.25881 0.46867 0.36219 0.38028 0.30749 -0.2575 0.088745 0.34508 0.29233 -0.69549 -0.13851 0.21921 0.62122 0.58028 -0.00093799 -0.42259 0.79115 -0.060453 -0.14512 -0.14723 0.27327 -0.37014 0.40304 -0.096911 0.34475 0.3536 -0.37844 -0.33702 0.30637 -0.47117 -0.055255 0.57281 -0.40062 -0.3626 -0.2688 0.89127 -0.2006 0.32846 0.11508 0.061811 0.18474 0.37389 0.011475 -0.7003 -0.11431 -0.30113 -0.55231 0.40622 0.14276 0.067503 0.32733 0.058295 -0.043102 -0.12314 -0.17244 0.32353
but -0.01689 0.17402 -0.30247 -0.30063 0.21415 0.063863 0.10107 -0.24155 -0.095228 2.9253 -0.0056759 0.11752 0.16121 0.020813 -0.083593 -0.14048 -0.040069 0.75133 -0.056699 -0.096198 -0.072134 -0.031287 0.18146 -0.24846 -0.065068 0.066374 -0.12173 -0.13479 0.26163 -0.21599 -0.24221 0.091074 -0.043504 -0.18047 -0.18158 -0.066229 0.02648 -0.25439 -0.078805 -0.21853 -0.030239 0.13049 0.10992 0.035563 0.32769 -0.02775 -0.18852 -0.18579 -0.085064 -0.024057 -0.14141 0.12708 -0.079024 -0.1332 0.037619 -0.1108 -0.22742 -0.27703 -0.08176 0.047761 -0.17936 -0.31907 0.13931 0.36374 -0.21399 -0.27044 -0.20847 0.011192 0.16017 0.24218 0.25058 0.32767 0.1334 0.006451 0.017994 0.11242 0.090136 -0.072882 -0.16506 0.483 0.0046465 -0.048611 0.027421 0.097357 0.10873 -0.31722 0.26092 -0.59396 0.26522 0.072456 -0.19246 0.034932 -0.15662 0.30779 0.33744 -0.0048664 0.15165 -0.019861 -0.14789 -0.017031 -0.17279 -0.038278 -0.3256 -0.1645 0.22257 -1.2442 -0.14105 0.074932 -0.18879 -0.10341 -0.0036646 -0.21667 0.035087 -0.19168 -0.10044 -0.0028554 0.056079 -0.074098 -0.0083292 -0.23693 0.041375 0.069771 0.20383 -0.18666 -0.042077 0.13305 -0.045272 -0.29631 0.16454 -0.11591 0.024631 -0.061717 -0.062958 0.13487 0.20565 0.014678 0.19056 -0.32541 0.10896 -0.091117 -1.8126 0.35567 0.5444 -0.035205 -0.027339 -0.1075 -0.3094 0.12539 0.087296 0.082909 -0.079026 -0.018092 0.26749 0.011947 -0.1309 -0.33304 -0.20343 -0.2802 -0.10974 -0.29613 -0.13973 0.18934 0.035228 -0.25916 -0.26859 -0.22678 0.13141 0.051456 0.26723 -0.18335 -0.0751 -0.016394 -0.099408 -0.18685 -0.14718 0.064933 -0.13858 -0.19941 -0.083017 -0.17141 0.014692 -0.24256 -0.2701 -0.085571 -0.17614 -0.17786 -0.013418 -0.14634 0.30529 0.060719 0.28651 0.14169 -0.19963 0.13507 0.07059 -0.042919 -0.070586 -0.35384 0.13877 0.24022 -0.030725 0.041167 -0.22029 -0.11796 0.11195 0.20739 -0.16588 -0.14708 0.097583 0.20831 -0.12357 -0.079109 -0.077406 -0.34475 0.29539 0.014243 0.07582 -0.019915 -0.1628 0.019031 0.25743 0.12232 -0.082438 0.061687 0.21967 0.2237 -0.094008 0.15609 0.0016797 0.18566 -0.26615 -0.10925 0.36341 0.10227 0.16318 -0.15906 0.027914 -0.097719 0.02167 0.1373 0.31447 0.016585 -0.32731 0.41633 0.1838 -0.22986 -0.12125 -0.15239 -0.01333 0.1581 0.32326 -0.07678 -0.12008 -0.11215 -0.050701 0.11711 0.14279 -0.12161 -0.015066 -0.076299 0.22693 0.17511 0.023596 0.14218 0.2125 0.21344 -0.06856 0.063065 0.55161 0.26941 0.17143 -0.19773 0.030509 -0.37473 -0.23374 0.19453 0.0023319 0.0052309 0.16025 0.508 0.30588 0.026994 0.11541 -0.079795 -0.099845 -0.031527 0.093683 0.01085 0.38706 -0.26888 -0.40783 -0.0016802 0.015798 0.035886 0.11664 0.023909 -0.053473 -0.3264 0.17957 0.11095
with -0.099534 0.028202 -0.23189 0.094477 0.12191 -0.18962 0.073341 -0.15359 0.25911 1.9248 -0.046101 -0.21138 -0.17738 -0.20793 -0.18928 -0.3129 0.13072 1.4701 -0.46841 -0.023714 -0.212 -0.052019 -0.35248 0.084653 0.0024205 -0.17004 0.043765 0.26229 0.075809 -0.16082 0.11186 0.28598 -0.054929 -0.20522 0.11707 -0.40985 0.037327 -0.27045 0.1013 -0.08777 0.2556 -0.10214 -0.050876 -0.24889 -0.090357 0.4034 -0.3189 0.078121 -0.013503 0.12497 -0.064195 0.15621 -0.38946 -0.64876 -0.15468 0.16203 -0.15856 0.064896 -0.41862 0.025252 0.017997 0.11129 -0.33223 0.10931 0.0081969 0.079634 0.0026924 0.37389 0.036858 0.48509 -0.02957 0.14924 0.17738 0.4603 -0.20893 -0.18132 0.13451 -0.16065 -0.32072 0.15555 -0.03326 0.11529 -0.092779 -0.2588 -0.15643 -0.4084 -0.28606 0.23272 0.41725 0.013223 -0.33545 -0.019994 0.044901 0.41256 -0.03345 -0.21479 -0.0015942 0.024378 0.061077 -0.30687 -0.2367 0.37644 -0.13545 -0.40298 0.002655 -0.72414 0.077049 0.14704 0.51869 -0.12925 -0.13599 -0.18394 0.2714 -0.061116 -0.024988 -0.095636 -0.0085056 0.46543 0.2659 0.056078 0.098618 -0.17006 0.34729 0.078652 -0.063333 -0.13574 0.064157 -0.11103 -0.14205 -0.18764 -0.34633 0.25308 -0.35633 0.14147 0.25892 0.13165 0.26874 -0.14804 0.12382 -0.28144 -1.0214 -0.081862 -0.013653 -0.1301 -0.040972 -0.033073 0.011929 0.03224 -0.042218 -0.13176 -0.17088 -0.070814 0.1671 -0.16467 -0.12633 0.1668 -0.32232 0.049674 0.011608 -0.31206 -0.45045 0.3898 0.23487 -0.28335 0.21271 -0.25443 0.020114 -0.05547 0.25253 -0.056873 -0.15862 -0.026803 0.25965 0.50472 -0.086708 0.14648 -0.26288 -0.022083 0.40802 -0.1796 -0.065229 -0.16112 -0.069664 -0.19957 -0.25525 -0.014869 -0.02734 0.089579 -0.12305 -0.039248 -0.18664 -0.23232 -0.12283 0.33509 -0.28719 0.31076 -0.20845 0.13095 -0.15076 0.25573 -0.25371 -0.25126 0.035924 0.0042305 0.35372 0.26601 0.085752 0.20911 -0.052287 0.045408 -0.60017 0.17656 0.33702 -0.49945 -0.13792 0.42832 -0.23114 -0.20549 -0.024213 0.48318 -0.32529 0.0025203 -0.35465 0.39879 0.075473 -0.068467 -0.052631 0.14831 0.10663 0.35927 -0.22333 0.19031 0.15848 0.26501 0.083116 -0.19741 -0.22847 0.26982 0.20911 0.28905 0.13072 0.31143 -0.10909 0.024217 0.32365 0.0073767 -0.14047 -0.55289 0.017525 -0.091675 0.23868 0.20604 -0.081178 0.22007 -0.091633 0.63293 0.24778 -0.29298 -0.40473 0.17206 0.094964 0.28609 -0.31598 0.175 0.18121 0.033382 -0.20758 0.04535 0.31449 -0.27504 0.3285 -0.18022 -0.32182 0.037396 -0.36 0.16197 0.22745 0.11206 0.16041 0.027424 0.348 0.39856 0.13257 -0.029977 -0.0080683 0.082876 0.61953 0.04786 0.29633 0.054708 -0.27364 -0.0064679 0.2173 0.012619 -0.079402 0.062584 0.041636 -0.10302 -0.039964 0.26808
for -0.17224 0.18234 -0.27847 -0.084666 0.25442 -0.19403 0.40686 0.15083 0.1467 2.0235 -0.37482 0.35648 -0.3089 -0.22356 -0.14905 -0.13722 0.0084057 1.4288 -0.27068 0.13772 -0.36068 -0.1064 -0.25892 -0.021405 -0.091887 0.19684 -0.072568 -0.10205 0.24116 0.11358 -0.07885 -0.33526 0.10925 0.33524 0.27432 -0.31051 -0.10975 -0.45724 0.35293 0.39174 0.1802 0.54142 -0.28704 -0.25404 -0.039927 0.10899 -0.03569 0.38254 -0.015887 -0.026144 -0.15714 -0.044737 0.014968 -0.0070873 0.087658 0.0077366 -0.1457 -0.061741 -0.45388 0.30605 -0.017014 -0.063985 -0.29787 0.20399 0.32647 -0.24086 -0.38758 0.42238 -0.26736 -0.29943 0.23768 0.17014 0.044736 -0.31539 0.22579 -0.055087 0.37389 -0.23561 0.19717 0.35053 -0.41176 0.48029 -0.073149 -0.087249 0.15243 -0.11238 -0.40695 0.23126 0.42527 0.54039 -0.18654 -0.12388 0.20175 0.15885 -0.24433 0.13816 -0.05275 -0.37713 0.25316 -0.1517 -0.038726 0.10583 -0.22374 -0.35832 0.5552 -0.40405 0.19802 0.37442 0.39109 -0.20125 0.21447 -0.21771 0.19883 -0.12365 0.23135 0.055844 -0.14367 0.45215 0.090552 0.22353 0.16864 0.12945 -0.17938 0.0059466 0.30603 -0.037982 -0.2342 -0.14291 0.16588 0.14113 0.11159 -0.12222 -0.21143 -0.59928 -0.12141 0.18523 0.08424 0.27563 0.00084164 -0.31465 -0.76391 -0.095779 0.21616 -0.37111 -0.37918 -0.054991 -0.077106 -0.026822 0.19469 0.068216 -0.12414 -0.13466 -0.20796 -0.60139 4.0447e-05 -0.041694 0.2925 0.16605 0.21888 -0.50904 0.25068 0.070135 -0.21918 -0.21602 -0.18442 -0.43146 0.19785 0.0080226 0.36722 -0.13148 0.023998 0.13471 0.26752 0.024872 -0.11739 0.13946 -0.036712 -0.20017 0.15539 0.3148 -0.14526 -0.57819 -0.44641 0.096624 -0.054571 -0.18836 0.073663 0.035028 -0.10157 -0.087624 -0.34328 0.077515 -0.17494 -0.093473 0.11019 0.3245 -0.0027808 -0.042048 0.021792 0.077157 0.0020113 -0.018635 -0.063576 0.091267 0.29855 0.14583 -0.052657 0.42096 0.10551 0.42326 -0.1339 -0.057948 0.0091967 -0.28813 0.21664 0.53437 -0.3869 -0.31943 -0.19912 0.052302 -0.10621 0.10387 -0.26914 -0.22388 -0.12387 -0.056268 0.045107 0.1568 0.0015951 0.18828 -0.15572 0.069977 0.094143 -0.012489 -0.069913 -0.25306 0.16792 -0.12539 -0.13384 0.1369 0.1683 0.024174 -0.27103 0.14758 0.41992 -0.011811 -0.17552 0.041223 -0.08434 -0.15541 -0.14332 0.21602 -0.4117 -0.066169 0.1057 0.29459 0.30023 0.024446 -0.2505 0.099516 -0.090528 0.36512 -0.14802 0.38177 -0.044691 -0.39547 0.087804 0.21348 0.52222 -0.26097 0.36305 -0.15252 -0.35695 0.070761 0.0092821 -0.0083663 0.37713 0.12371 -0.077069 0.3606 0.085337 0.27766 -0.065084 -0.078499 0.011443 -0.27166 0.1849 -0.28825 -0.044511 -0.10293 -0.2007 -0.41393 0.29053 -0.27788 -0.13943 -0.12238 -0.081083 -0.12668 -0.43856 0.38765
movie 0.2071 -0.47656 0.15479 -0.38965 0.48447 0.59815 -0.060361 -0.66422 0.53934 1.8491 -0.30595 0.35849 0.4876 -0.17715 -0.15448 -0.016732 0.49752 0.60761 -0.68789 0.079932 -0.36166 -0.71046 0.59322 0.058712 0.061551 0.64212 -0.23157 -0.46528 -0.50984 -0.07284 -0.017711 -0.57277 -0.21122 0.55066 0.048092 -0.14431 0.14189 0.26226 -0.58394 0.38901 0.41958 -0.20731 0.15663 -0.44107 0.30562 0.096708 0.13916 0.010335 -0.032717 -0.5742 0.62223 -0.2939 0.29001 -0.16932 -0.27118 0.12735 -0.029766 -0.79835 -0.24082 -0.57272 -0.13385 -0.00025457 0.58948 0.34175 0.28423 -0.4696 0.15337 -0.082005 -0.23874 -0.33641 0.59665 -0.73306 0.030852 -0.14965 0.41782 -0.039437 -0.45271 0.44231 0.59446 0.8817 0.047335 -0.43555 0.33402 0.018312 0.16548 0.060438 -0.35004 -0.30558 0.23026 -0.44354 -0.7337 0.099891 -0.65653 -0.033173 0.48499 -0.21258 -0.25289 0.015102 -0.49067 0.43074 -0.21455 0.418 -0.28483 -0.28137 0.17207 0.39718 -0.21496 -0.13029 -0.55696 -0.52795 0.0142 0.71383 0.12805 -0.079991 0.045455 0.014101 0.45682 0.88511 0.22564 0.35516 -0.24065 -0.27947 -0.75772 0.065204 -0.4532 0.33027 -0.059497 0.16402 -0.64153 0.32435 0.084376 -0.0062744 0.76774 -0.19785 -0.0039945 0.26907 -0.17002 -0.14076 -0.086839 -0.098939 -3.7366 -0.6692 0.1328 0.0089765 -0.32659 -0.12951 0.0092428 -0.48702 0.16228 0.19048 -0.042048 0.0039213 -0.18159 -0.29457 -0.20489 -0.1556 -0.20947 -0.24039 -0.12614 0.37575 0.35663 -0.47156 0.23462 0.13429 -0.33429 -0.16691 0.086062 0.36777 0.27096 -0.18573 0.11511 -0.77149 -0.18265 0.42853 0.45192 -0.21442 0.13089 -0.038675 0.098245 -0.47458 -0.16065 0.0026147 -0.3647 0.21255 0.21056 0.13531 -0.50535 0.56443 -0.20756 0.14172 -0.54563 -0.22121 -0.085813 0.33857 -0.42172 -1.1349 0.087366 0.16533 0.041059 -0.16843 0.52718 0.026099 -0.21973 -0.14039 -0.013433 0.54268 0.1838 0.25954 0.38688 0.48662 -0.087807 0.097082 0.2756 -0.59431 -0.33723 0.102 0.69022 -0.24012 0.16538 -0.52865 -0.41785 -0.045182 -0.08644 0.07965 -0.040789 0.078141 -0.2795 -0.062237 0.42491 -0.029104 -0.32761 0.163 0.062248 0.28707 -0.43214 0.31645 0.29625 -0.07329 -0.17555 0.078942 -0.068152 -0.14003 0.56683 -0.2388 0.57614 -0.059536 0.12489 0.75039 0.14964 -0.21104 0.2155 0.54676 0.65404 -0.40745 -0.22905 0.2993 0.61241 0.48778 -0.39494 -0.61087 0.5342 -0.19649 0.16385 -0.21712 0.02827 -0.50565 0.097484 0.18294 0.19555 0.18784 -0.71307 -0.28448 0.16124 -0.21249 -0.28012 0.12283 -0.29615 -0.2502 -0.24961 0.90737 0.212 0.32665 0.26884 -0.043844 0.37932 0.37511 0.43233 -0.3357 0.010399 -0.81436 -0.1199 0.18936 0.0084682 0.36339 0.1505 -0.042618 -0.41885 -0.26411 -0.16523 0.23532
its 0.28304 0.26176 0.067534 -0.30956 0.19064 -0.099757 -0.03651 -0.046698 -0.081778 2.5118 -0.31368 -0.56376 -0.051978 -0.32673 0.32196 -0.10828 0.043043 1.6706 0.067652 -0.56287 0.072389 0.17455 0.24762 -0.22893 0.33941 0.024561 -0.30243 0.035137 -0.17616 0.41661 0.059566 0.040907 -0.39508 0.039842 -0.16348 -0.10066 -0.00047513 0.22701 0.2435 0.021882 0.06597 -0.1018 0.089944 0.078081 0.45724 -0.20783 -0.17962 -0.1699 -0.33538 0.21982 -0.028103 0.31353 -0.48543 0.18419 0.26625 0.15157 -0.41382 0.00012232 0.23844 -0.17516 0.21147 -0.055936 -0.15736 0.14382 -0.38937 -0.098667 -0.18404 -0.35774 0.10724 -0.3921 0.25904 0.20908 0.30777 0.2503 -0.35652 -0.1011 -0.11352 0.37289 -0.24514 0.42943 0.26505 0.21806 -0.11719 0.27809 0.04314 -0.3882 -0.89922 0.015867 0.047822 0.10304 -0.46467 0.58949 -0.048422 -0.1905 0.40985 0.6055 -0.20657 -0.17659 -0.04384 -0.12935 0.095888 -0.23225 -0.25343 0.17993 -0.16903 -1.442 0.26146 0.30729 -0.11981 -0.42626 -0.26181 0.19523 -0.2739 -0.12717 -0.23732 0.65284 0.059042 0.28238 0.001204 0.061963 0.074636 0.26117 0.11404 0.31973 -0.60474 0.1178 -0.18451 -0.25292 -0.068619 -0.17265 -0.36371 -0.27543 0.31474 0.011518 -0.093385 -0.10969 -0.02618 -0.058745 -0.059828 0.029319 -0.97897 0.17723 0.18284 0.11645 0.0071534 -0.033927 0.038076 0.14632 0.31175 0.021127 -0.34486 0.2268 0.41661 0.22422 -0.12501 0.12558 -0.42725 -0.1635 -0.044727 -0.16581 -0.041248 0.09521 -0.094453 -0.068732 -0.57317 -0.10931 0.14904 -0.10373 0.43898 -0.2085 -0.016866 -0.047319 -0.15894 -0.41603 -0.34858 -0.26573 -0.061969 0.049387 -0.33195 0.37645 0.1457 -0.036988 -0.040918 -0.21386 -0.11716 -0.098237 0.070038 -0.19031 -0.10022 -0.20933 0.28702 -0.31674 -0.52154 0.077155 0.026727 0.044399 0.2439 -0.092638 -0.2399 0.24938 -0.12258 0.1335 -0.26177 0.09316 0.50361 0.011271 -0.30418 -0.053974 -0.052981 -0.22835 -0.74293 0.10878 0.17658 -0.25948 0.23938 0.41883 0.11285 -0.57661 0.32564 0.01336 -0.075058 0.0003758 -0.42224 -0.14137 0.048758 -0.25962 -0.28266 0.6052 0.17923 -0.098746 -0.11087 0.11843 -0.16688 0.15146 0.14864 -0.22869 -0.38186 0.038771 -0.014488 -0.13013 0.10983 0.25582 -0.11258 0.28444 0.18683 -0.49298 0.11624 -0.23028 -0.0053577 0.010613 -0.11358 0.05423 0.20333 -0.039052 -0.35308 0.44789 0.13611 0.46656 -0.038429 -0.14068 0.15811 0.030148 -0.06927 0.31101 0.075017 -0.9287 -0.21887 -0.14259 0.78878 -0.081774 0.56309 -0.24955 -0.44098 -0.054303 0.11827 0.1415 -0.18031 0.064754 0.39522 0.22413 0.12566 0.3971 0.20779 0.088255 -0.13743 0.074447 0.057275 0.20448 0.3788 -0.23398 -0.38306 -0.17628 -0.089558 -0.32299 -0.42498 -0.34419 -0.094728 0.077725 -0.046055 0.31524
A -0.20996 -0.15577 -0.37736 0.22892 -0.14712 -0.41782 -0.19491 0.061021 0.057944 0.79813 -0.49189 0.026116 0.16173 0.28898 -0.0026319 -0.1842 -0.087295 1.8144 -0.14008 0.23612 -0.0075722 -0.44965 -0.089656 0.27359 0.20097 -0.0072507 0.085632 -0.025656 0.074721 -0.46209 -0.072882 -0.16263 0.43647 -0.22789 0.68795 0.052565 0.69874 -0.2612 -0.20619 -0.56306 0.67343 0.73758 0.56451 -0.062426 0.17391 -0.43643 -0.28697 -0.43337 -0.0049453 0.15617 -0.34879 0.37111 0.11258 0.25172 -0.031563 0.30049 0.44813 -0.015333 0.16217 -0.48068 0.072301 0.61309 0.34949 0.21502 -0.072819 -0.21604 -0.0075218 0.27666 -0.067807 0.80486 -0.069778 -0.01935 -0.080579 -0.014039 -0.1727 -0.3649 0.033739 -0.40203 -0.42697 -0.15293 -0.27655 -0.015369 0.23901 -0.31599 -0.029107 -0.21087 -0.96182 -0.64057 0.19498 -0.018121 0.031116 0.54894 -0.3012 -0.51079 -0.35858 0.28914 -0.00024464 0.13136 0.33373 0.10972 -0.38792 0.10509 -0.096306 -0.3038 -0.52376 1.2378 0.12279 -0.078918 -0.12906 -0.29315 0.50429 0.46874 0.34198 0.2086 -0.20838 0.13765 -0.3963 0.18899 0.021267 0.27989 0.081349 -0.10532 -0.16893 -0.19626 0.34535 0.075704 0.16554 0.23067 -0.78467 0.33482 0.18541 0.021629 0.24324 0.16439 -0.2048 0.31068 -0.29248 -0.35154 0.28416 -0.36905 -0.68219 0.40374 0.094617 0.2102 -0.20161 -0.56048 -0.1986 0.01027 0.5389 -0.12267 0.05936 0.55474 -0.31224 0.48796 -0.12043 0.46766 -0.12938 0.40088 0.019864 -0.29511 -0.25855 -0.07466 0.2859 0.31425 0.00608 -0.21354 -0.021682 0.00071712 0.14667 0.16867 0.22643 -0.064471 0.37709 -0.55989 0.080315 -0.3804 0.41056 0.24063 0.24484 -0.084154 -0.3352 -0.20211 0.3168 -0.21769 -0.087743 -0.29136 -0.38373 0.31967 -0.21597 -0.63323 -0.55495 0.238 -0.1738 0.15924 -0.019654 -0.23382 -0.41693 -0.027608 -0.4692 -0.18673 0.080305 0.18432 -0.27526 -0.11773 -0.078136 4.4391e-05 0.075786 -0.11134 -0.028653 -0.066874 -0.10825 0.33274 -0.53809 0.084754 0.24742 0.49225 -0.61612 -0.073305 0.036984 -0.47666 0.3876 -0.11847 -0.18543 0.26648 0.0301 -0.091692 -0.089048 0.5974 -0.34772 0.042589 0.35159 0.54349 0.039836 -0.13209 -0.1168 -0.17365 0.27153 -0.24718 -0.29161 0.3776 -0.18952 -0.19703 0.46173 -0.38895 -0.13167 0.41821 0.18999 -0.42373 0.14842 -0.022686 -0.17622 -0.42518 0.2635 0.27572 0.021108 0.2242 0.33604 -0.62737 0.14957 0.11675 -0.14058 0.27587 0.48029 0.15128 0.16701 -0.22638 0.50567 0.31768 0.25475 -0.39161 -0.42438 -0.17821 -0.17495 -0.57828 -0.086497 -0.22157 -0.45225 -0.10178 0.47447 0.42666 0.32293 0.18973 -0.13945 0.24426 -0.30392 -0.26029 -0.15535 -0.22362 0.043117 -0.14086 -0.064447 -0.06453 -0.29109 -0.049615 0.21072 0.34463 0.4123 -0.55673 0.00072776 0.065055
an -0.011662 0.19483 0.088854 0.54694 0.25764 0.15619 -0.34131 -0.21666 -0.14187 2.4525 -0.064806 0.085481 -0.11925 0.0087107 0.18261 -0.29207 -0.11578 1.571 -0.31973 -0.41279 -0.18129 -0.29101 -0.21584 0.19685 0.1524 -0.090306 -0.097694 0.098791 0.067369 -0.24964 0.099773 0.32079 -0.056697 0.32238 0.15905 -0.45345 0.11294 -0.50674 0.23202 -0.55625 0.39208 0.14811 -0.18637 -0.62775 -0.02939 -0.10555 -0.095531 -0.097434 0.1972 0.22059 -0.11017 -0.048332 -0.048414 0.0029998 0.099272 -0.023553 0.014603 -0.098494 -0.14167 0.11831 -0.012322 0.036239 0.10297 0.11158 -0.04193 -0.16625 0.28472 -0.22051 -0.049708 0.32561 -0.244 -0.02814 -0.0071356 -0.22616 -0.089478 0.082447 0.048198 -0.28326 -0.7462 0.60872 0.21592 0.13517 -0.005879 0.15697 0.017543 -0.6507 -0.6081 0.13962 0.28628 -0.34076 -0.32782 0.33876 0.22207 -0.14818 -0.32918 -0.15938 -0.38448 -0.12595 -0.099549 -0.28544 0.0093137 0.0078235 -0.093138 -0.068065 0.026759 -1.0398 0.24762 0.38398 0.6623 -0.26994 0.19174 -0.13892 -0.37396 -0.00016413 -0.094473 0.09779 -0.44733 0.17914 -0.22492 0.011517 -0.21837 -0.027095 0.22307 -0.34854 -0.18707 0.0030603 -0.42032 -0.18487 -0.56208 -0.15139 -0.10828 -0.21532 -0.27416 -0.20356 0.24666 -0.23746 -0.12539 -0.014658 0.044677 -0.68932 -0.7128 0.19282 0.043114 0.092519 -0.071066 -0.37312 0.25582 -0.29538 0.34666 -0.20368 0.18214 0.32011 0.10774 -0.19064 0.49321 0.11759 -0.077502 -0.20347 -0.30257 -0.24968 -0.33035 -0.11076 0.17257 -0.25248 -0.15597 -0.095579 0.29602 -0.11353 0.11378 0.04217 -0.10416 0.10275 0.32486 0.12846 0.0086711 -0.087829 0.041325 -0.25309 -0.44164 -0.13862 -0.311 0.15086 -0.29916 -0.54871 -0.46731 -0.18136 -0.13318 0.24436 0.013889 -0.21335 -0.31292 0.2053 -0.61686 0.5607 0.22628 0.42597 -0.30931 -0.19921 -0.16589 0.16017 0.059949 0.16039 -0.094529 0.21313 0.4397 -0.11975 0.2091 0.20094 0.17543 0.1891 -0.44454 0.077866 0.081136 -0.36833 -0.40159 0.62475 -0.054086 0.52973 0.048823 -0.03157 -0.012963 0.055686 -0.094021 0.070565 -0.37699 -0.36916 0.064286 0.41971 0.10837 -0.13602 -0.056549 -0.040015 0.3409 0.11575 -0.054581 -0.20758 0.40873 0.001297 -0.36174 0.59374 0.074668 0.27985 0.33846 0.51372 0.48615 -0.26198 0.25109 0.23477 0.16903 -0.14265 -0.19448 -0.10927 0.21903 0.13169 -0.073529 0.05847 0.30656 -0.21659 -0.035887 0.2382 -0.19286 0.23738 0.32946 -0.43599 0.16886 -0.21193 -0.069089 -0.48063 0.40617 -0.0051688 0.68038 -0.018951 -0.23077 -0.0039166 -0.36334 0.32451 -0.3719 -0.065041 0.50366 0.18549 0.42846 0.33319 0.14532 0.02386 -0.070744 -0.66983 -0.11862 0.07278 0.27465 -0.049775 0.0021254 0.18468 -0.0021512 -0.25295 -0.3457 -0.2713 0.12307 -0.054666 -0.1934 0.13995
you -0.11076 0.30786 -0.5198 0.035138 0.10368 -0.052505 -0.18021 -0.11839 -0.054253 2.498 -0.30241 0.043233 -0.095862 -0.093529 -0.19817 -0.26599 -0.34703 1.4518 -0.49013 0.041637 0.11185 -0.019023 -0.18716 -0.10407 -0.43665 0.073561 0.019546 -0.15012 0.18499 -0.24364 0.20327 0.28916 -0.21694 0.28351 -0.10092 -0.042189 -0.073457 0.27325 -0.12898 -0.059407 -0.073329 0.01249 -0.20459 -0.44558 0.040863 0.24588 -0.26111 -0.086821 0.13628 0.11094 -0.10835 0.0098775 0.17394 0.006475 0.27467 -0.0097433 0.16561 -0.16975 -0.12561 -0.071688 -0.056815 -0.28632 -0.24231 0.27819 0.24112 -0.009142 -0.053634 0.43907 0.39 0.1252 -0.063581 0.058089 0.59187 -0.18385 0.090201 0.13788 0.41051 -0.39034 -0.071701 0.37935 0.031344 -0.003615 -0.25773 -0.048608 0.1952 -0.29912 0.04721 -0.13577 0.67253 -0.083033 -0.1968 0.074079 0.17826 0.20097 -0.036357 0.027783 -0.32144 -0.2962 -0.1326 0.30375 0.05418 0.070012 0.11935 0.04668 0.37338 -0.63809 0.33868 -0.091924 -0.12639 0.068526 0.11981 -0.22509 0.56067 -0.035003 0.36471 -0.26875 -0.0048343 0.064098 -0.2876 -0.023736 0.21348 -0.4122 -0.12958 0.051024 0.42078 -0.086314 -0.10035 -0.26017 0.0096791 0.064299 0.10799 -0.095081 -0.12798 0.054993 0.060576 -0.037241 -0.19778 -0.12237 -0.16846 -0.098457 -1.8562 0.3119 -0.30854 -0.098816 -0.0019955 -0.29415 0.078162 0.18014 -0.027904 -0.049573 0.071973 0.16791 -0.033054 -0.079709 -0.097695 0.26119 0.11585 -0.25638 -0.089019 -0.024823 -0.10813 0.20349 -0.20903 0.18039 0.39647 -0.13119 0.46686 -0.053135 0.014807 0.059119 -0.084577 -0.05861 0.34677 -0.25996 0.052293 0.19285 -0.27362 -0.10858 -0.030143 0.35079 0.20094 0.08739 -0.12402 0.02094 0.041557 -0.026728 -0.025289 -0.34984 -0.078001 0.17182 -0.06293 -0.074751 0.045825 -0.27333 0.23052 0.19061 -0.20641 -0.039203 0.33908 0.52254 -0.10861 -0.30465 -0.053306 -0.26766 -0.0043355 0.23916 0.22283 -0.053289 0.20198 -0.084151 0.10375 -0.35093 -0.19961 0.010933 0.26317 0.34094 -0.068638 0.20576 -0.52757 -0.084815 0.11056 0.021289 0.063286 0.094234 0.20282 -0.15887 -0.010649 0.25771 -0.23234 -0.23733 -0.15439 0.13906 0.086255 0.38443 -0.25632 0.031801 0.080305 -0.40683 -0.51163 0.26979 0.41308 0.057052 0.054701 -0.060832 0.19468 -0.38259 -0.044148 -0.036737 -0.3972 0.55777 0.069855 -0.21519 -0.091095 0.033559 -0.16332 0.42089 0.019067 -0.21884 0.27533 0.23683 0.094193 0.038504 0.2238 -0.11986 0.23199 -0.088445 -0.014716 0.65752 0.59385 0.24571 0.024754 -0.31514 -0.1547 0.00057218 -0.042344 0.081696 0.030109 0.070089 0.08708 -0.079636 -0.0083257 -0.14395 0.038982 -0.095362 0.27599 -0.3907 0.44441 -0.35471 0.2331 -0.0067546 -0.18892 0.27837 -0.38501 -0.11408 0.28191 -0.30946 -0.21878 -0.059105 0.47604 0.05661
this -0.087595 0.35502 0.063868 0.29292 -0.23635 -0.062773 -0.16105 -0.22842 0.041587 2.4844 -0.38217 0.032806 0.12348 -0.0018422 -0.13848 -0.0010005 -0.043081 1.1659 -0.047327 -0.056004 0.15617 -0.13394 0.23229 0.087602 -0.32329 0.16721 -0.16221 -0.091919 -0.38004 0.12686 0.067819 0.32509 -0.057245 -0.3263 -0.11903 -0.00063964 -0.0059275 -0.29934 -0.085043 -0.26683 -0.15815 0.25963 0.22571 0.062582 -0.19394 0.21922 -0.31186 0.37084 -0.36577 -0.052483 -0.43101 0.12379 0.015529 -0.12505 0.22327 0.29365 -0.0085104 -0.083909 0.24078 -0.34913 -0.28355 -0.076594 -0.1713 0.32869 0.29024 -0.062741 -0.055278 -0.28706 0.079608 0.13234 0.47857 0.19623 0.27314 -0.13089 0.2763 -0.088846 -0.12379 0.073987 -0.51962 0.35227 -0.029182 0.16203 -0.036908 0.28035 0.31739 -0.27597 -0.43637 -0.32842 0.3676 -0.16278 -0.16278 0.37066 -0.1134 0.3092 0.26133 0.39483 -0.074612 -0.22158 0.25172 0.2999 0.10566 -0.11406 -0.35395 0.066704 0.050216 -0.71479 0.098646 -0.058832 -0.004779 -0.2392 0.10179 -0.27205 0.16836 0.2342 -0.37496 0.31125 -0.3112 0.21778 0.30323 -0.11729 -0.054639 -0.15356 0.051771 -0.11426 0.022473 0.044405 -0.32101 -0.27799 0.24675 -0.1176 -0.015964 -0.40969 -0.26082 0.16021 0.061166 -0.0031131 -0.30573 -0.041686 0.23524 -0.058415 -1.6003 0.10126 0.12116 0.015319 -0.11945 -0.39095 -0.19919 0.04393 0.22886 -0.053961 -0.02657 0.11952 0.18446 -0.069963 0.36429 -0.023679 -0.45081 -0.037263 -0.13243 -0.11009 -0.15201 0.12182 -0.093379 0.10215 -0.34126 -0.07815 0.027685 -0.0048772 0.27281 -0.11304 0.01247 0.27008 0.38885 -0.23909 -0.16375 0.019977 -0.10628 0.055798 0.14127 0.46536 -0.33169 0.18308 0.29646 0.023906 0.32799 -0.53632 -0.46895 -0.017593 0.0046805 -0.096152 -0.12695 0.064099 -0.29787 0.37799 0.44469 0.12248 0.076388 -0.18102 -0.011795 0.4009 -0.36967 -0.24106 -0.42252 0.21378 0.40977 0.13013 -0.033478 0.0093179 0.29553 0.068702 -0.14949 0.10473 0.3886 -0.37063 -0.068934 0.42111 0.10861 0.18585 -0.11387 0.2037 0.094214 -0.21426 -0.19376 0.12261 0.13971 -0.54205 -0.24502 0.47454 -0.05938 -0.12865 -0.17345 0.37465 -0.072616 0.31124 -0.00033315 -0.0031445 0.0011435 -0.080773 -0.052824 0.26108 0.24586 -0.058762 -0.021999 0.1406 0.36004 -0.081521 -0.028828 0.23878 -0.12243 0.18758 0.069072 -0.068685 0.12377 0.031713 -0.1153 0.38205 0.48575 -0.16466 0.11033 0.13873 0.32145 0.028014 -0.05476 -0.19438 -0.015438 -0.056435 0.023037 0.42915 0.5908 0.096298 0.12788 0.15916 -0.072056 -0.21036 0.057346 0.045768 0.1573 0.31019 -0.042692 0.017531 0.029585 -0.042749 -0.10006 -0.31611 -0.0045054 -0.13689 0.40798 -0.065866 0.20162 -0.07966 -0.039495 0.093723 0.093557 -0.097551 0.30639 -0.27325 -0.33112 0.03446 -0.15027 0.40673
n't -0.13019 0.27764 -0.24159 -0.1229 -0.099673 0.1548 0.045905 -0.048852 -0.070227 2.6683 0.018325 -0.14477 0.54896 0.13912 -0.5663 -0.076259 0.020997 0.53276 -0.31074 0.12863 0.21444 0.13455 0.2385 0.048554 -0.3388 0.021484 -0.3094 -0.298 0.54086 -0.53253 -0.26099 0.26757 -0.056835 -0.15544 0.27707 0.085732 0.32584 0.088359 -0.1003 -0.13693 -0.0411 0.23295 -0.091702 0.081552 0.20786 -0.031941 -0.21681 0.042795 -0.11452 0.059274 -0.22558 -0.11495 0.1403 -0.10689 0.41254 -0.10124 0.02884 -0.41875 0.10929 -0.15641 0.039418 -0.28243 -0.1422 0.47574 0.26084 -0.12307 -0.1724 -0.10748 0.31673 0.25172 0.36466 0.38725 0.28571 -0.093661 0.055286 0.2427 0.17109 -0.15716 0.14724 0.36599 -0.065697 -0.23486 -0.19004 -0.042001 -0.2401 -0.17693 0.14648 -0.5474 0.7324 -0.15878 -0.34187 -0.22201 -0.15924 0.31443 0.23653 0.055091 0.28245 0.019587 0.2493 0.044079 -0.22886 0.36507 -0.076332 -0.073083 0.23082 -0.47279 0.020098 -0.18732 -0.15627 0.29637 0.081997 -0.019479 0.31497 -0.26458 0.17927 -0.11421 0.1828 -0.19653 -0.15288 -0.0028553 -0.020426 -0.22377 -0.070952 -0.36273 0.25286 -0.017657 0.070154 -0.52035 -0.06306 -0.063401 0.031118 0.17004 -0.12248 0.344 0.16571 -0.15052 0.052269 -0.10966 -0.1355 -0.23961 -2.2062 0.14258 0.16897 0.035696 0.1303 -0.10539 -0.2026 0.12489 -0.01408 -0.22252 0.40705 0.1008 0.032245 0.39523 -0.077507 -0.21702 -0.09814 -0.20212 -0.019024 0.012406 -0.33449 0.24188 -0.2918 0.047731 -0.2364 -0.041121 0.16712 -0.25078 0.30386 -0.15052 0.025404 -0.19863 0.11755 -0.35061 0.26133 0.37007 0.13698 0.11351 0.15074 -0.1246 -0.067939 0.01238 -0.42154 -0.0091529 -0.10902 -0.086627 -0.059834 0.10847 0.013728 0.043898 0.16817 0.043819 -0.29907 -0.17329 0.21429 0.13766 -0.088914 -0.22155 0.34939 0.48677 -0.13624 -0.086712 0.027144 -0.24487 0.043639 0.13863 0.012576 -0.091621 0.35802 0.084971 0.019817 -0.20481 -0.15568 -0.52826 0.064368 0.060007 -0.24596 0.15001 -0.60509 -0.15379 0.016719 0.15949 -0.097624 -0.07951 0.19468 0.098393 0.15924 0.15078 -0.091977 -0.0268 -0.21947 -0.19844 0.58255 0.074457 -0.18159 0.10575 0.39545 -0.62542 -0.070905 0.29926 0.23098 -0.058532 0.079409 0.21516 -0.0001531 -0.35988 -0.2874 -0.024583 -0.30688 0.61378 -0.2017 -0.18743 -0.22567 -0.11391 -0.13839 0.065526 -0.38524 -0.26101 0.15433 0.19295 0.016614 0.27393 0.015089 0.17114 0.36981 0.44011 -0.0013757 0.15895 0.52241 0.21377 0.099801 -0.07774 -0.02571 -0.45929 0.009682 -0.015693 -0.012355 -0.15352 0.040929 0.24291 -0.099217 -0.12023 0.048583 -0.22753 -0.40505 -0.23716 -0.011524 -0.15346 0.068119 -0.035336 -0.34307 0.065718 -0.026112 0.083108 0.27713 0.020035 -0.20193 -0.17143 0.55838 0.19698
be -0.059177 0.10653 -0.21613 -0.086178 0.0052228 -0.31209 0.16434 -0.065671 -0.24299 2.8051 0.059692 0.18216 0.073624 0.0093354 -0.093003 -0.10523 -0.015776 1.4393 -0.32234 0.25648 -0.31302 -0.31614 -0.20829 0.0028499 -0.0019596 0.073027 -0.27036 -0.1629 -0.021221 -0.21465 -0.39635 -0.32108 0.26781 0.21279 -0.15238 -0.028793 0.12908 0.13193 -0.045406 -0.12934 -0.083739 0.3074 0.1636 0.11752 -0.091214 0.072193 -0.12952 -0.52603 -0.15138 0.12952 -0.023243 -0.11255 -0.079129 -0.0096833 0.33654 0.2427 0.026008 -0.192 -0.010047 -0.037435 -0.15925 0.0083503 0.058721 0.39642 0.019166 0.23594 -0.2811 -0.011488 -0.072048 0.041322 0.016168 0.03144 0.31747 -0.30379 0.06967 -0.16977 0.25906 -0.076611 -0.034575 0.27622 -0.14602 0.16589 -0.76701 0.023854 0.078095 -0.41376 0.075619 -0.30255 0.46555 -0.20157 0.018672 -0.00096138 0.020075 0.060417 -0.086466 -0.043896 0.13239 -0.20154 0.08112 0.17685 -0.10037 0.046756 -0.27133 -0.13062 0.17761 -0.9232 -0.1067 0.0072694 -0.18058 0.21091 -0.22119 -0.2345 0.34365 -0.068762 0.078673 -0.018618 -0.052782 0.052157 -0.32448 0.021627 -0.16359 0.075062 0.044297 0.012193 0.14381 0.16557 0.18317 -0.40662 -0.27073 0.00042751 0.12945 -0.0053032 -0.25001 0.18327 0.20265 -0.012467 0.018308 -0.40013 0.12502 0.003477 -1.0666 0.33704 0.064336 -0.0016383 0.28411 -0.49389 0.13896 -0.15459 0.25181 -0.21275 -0.010757 0.031174 -0.14182 0.043638 -0.1315 -0.29007 -0.2681 -0.092404 -0.16986 -0.056057 0.22555 -0.22874 -0.15662 -0.034905 0.032365 -0.2728 0.23545 -0.068752 0.18032 0.21828 0.17587 0.16196 0.42311 -0.12981 -0.10721 0.14 0.23909 0.073175 -0.18238 0.1259 -0.11718 0.11375 -0.0060567 -0.20433 -0.40133 0.028971 -0.29975 0.25302 0.19057 0.32286 -0.037766 0.31721 -0.41509 0.056003 0.23179 0.37168 -0.09784 0.12347 0.10581 0.13146 0.3043 -0.045898 0.066644 0.14335 0.35518 0.0024192 -0.18104 0.31981 0.14239 0.072076 0.062244 -0.032158 -0.11407 -0.37929 -0.049872 0.38181 -0.034392 0.088131 -0.33506 -0.086454 -0.022889 0.033521 -0.002676 -0.059325 -0.023097 -0.010913 -0.038762 0.17954 -0.25602 -0.20299 -0.05087 0.041028 0.38857 0.15681 0.10563 -0.24079 0.024882 -0.64961 -0.42533 0.038336 0.19421 -0.039542 0.010792 0.1854 0.20463 -0.21805 -0.17758 -0.22371 -0.071107 0.19477 -0.20002 -0.33464 -0.10225 -0.05054 0.074644 0.11676 0.33306 -0.20363 -0.13614 0.054118 0.40379 0.14632 -0.23965 0.23556 0.18767 0.39215 0.29667 0.34091 0.6756 -0.041047 0.38802 -0.13115 -0.22443 -0.21762 -0.14125 0.13114 -0.096445 0.32444 0.020578 0.36477 0.4976 0.11293 -0.094335 -0.10268 0.038671 -0.053416 -0.058225 -0.0063199 0.22396 0.20136 -0.26928 0.094072 -0.20203 -0.30628 0.21981 0.21263 -0.171 -0.42755 0.024956 0.02466
It -0.21653 0.45197 0.2301 -0.23523 -0.35764 -0.19423 -0.24452 0.096434 0.1874 1.9089 0.042053 -0.11192 0.15304 -0.083697 -0.44506 -0.019898 0.012027 1.1548 -0.019508 0.09901 -0.30594 0.0060012 0.093122 0.42412 -0.22028 0.16918 0.2352 -0.036206 -0.29998 -0.59959 -0.039482 0.22146 0.19871 -0.35295 0.18009 0.15695 0.36454 0.42771 0.22505 -0.0012043 0.36493 0.091652 -0.087796 -0.092526 0.31337 -0.10013 -0.38329 -0.019398 -0.12168 0.1216 0.18476 0.38966 0.03255 0.27405 0.42272 -0.25369 0.25029 -0.28832 0.52564 -0.20115 -0.042606 0.10244 0.11757 0.10084 -0.39668 -0.13308 -0.16427 0.13133 -0.11979 0.040294 0.096011 -0.082921 0.33803 -0.055831 -0.18753 0.13793 0.010421 0.10856 -0.39722 0.077034 0.0064615 -0.13704 -0.26635 0.20356 -0.14913 -0.59539 -0.43323 -0.45895 0.56244 -0.23788 -0.056966 0.084999 -0.11835 0.32412 0.085726 0.42619 -0.027832 -0.12591 0.046188 -0.077867 -0.22907 0.16504 -0.06943 0.11838 -0.068238 0.27221 0.20197 -0.01716 0.0044207 0.29678 0.053962 -0.039823 0.097168 0.018075 -0.13814 0.16286 -0.14943 0.085727 -0.14893 -0.17391 -0.15581 -0.27619 -0.10654 -0.24135 -0.44017 0.097172 -0.015655 -0.49998 0.04055 -0.0096971 0.018428 -0.23151 0.088351 0.24096 0.02357 0.065528 0.26626 -0.13847 0.052705 -0.2478 -1.4311 0.33735 0.41537 0.4589 0.06029 -0.083543 -0.29475 0.025666 -0.13224 -0.27796 0.031818 0.33511 0.14333 0.13917 0.015829 -0.10084 -0.2476 -0.13344 -0.12179 -0.23148 -0.10531 0.043078 0.26381 -0.25919 -0.50924 -0.12353 0.34444 -0.070736 -0.18731 -0.174 0.15688 -0.045973 0.028212 -0.51591 0.07228 0.023146 0.28694 -0.15754 0.076621 0.1751 0.051389 0.084238 -0.15616 0.25924 -0.15046 -0.083518 -0.25813 -0.22477 -0.074622 0.13215 -0.25244 -0.34878 -0.075911 -0.16411 -0.0056129 0.32698 -0.13765 -0.21458 -0.0037632 0.40683 -0.17335 0.030628 -0.12337 0.054422 -0.27337 0.28925 -0.11452 -0.11909 0.15119 -0.056278 -0.072915 -0.13322 -0.12678 -0.44003 0.15491 0.11625 -0.20668 0.141 -0.26025 -0.37184 -0.0002386 -0.025282 -0.0080818 0.33493 0.21678 0.072915 0.13188 0.4768 -0.17879 0.017512 -0.0021142 0.35466 -0.0046773 -0.086491 0.124 0.23765 0.57336 -0.6066 -0.29847 0.37341 0.37042 -0.14596 0.18582 0.21014 0.17605 -0.48677 -0.17341 -0.4827 -0.13406 -0.024471 -0.10263 -0.18266 0.21926 -0.26868 0.0014264 0.2914 0.18108 -0.40375 0.21007 0.26226 0.086934 -0.071871 -0.016351 -0.27746 -0.019382 -0.068202 0.18744 -0.13611 0.34545 -0.098507 -0.14924 -0.39272 -0.72104 -0.47786 -0.053611 -0.030662 0.022846 -0.422 0.1545 0.43971 0.034263 -0.001291 -0.071457 -0.0052097 -0.22695 -0.21493 0.0079117 -0.18758 -0.046649 -0.19205 -0.26517 0.19785 -0.019665 0.1279 -0.039561 -0.14508 0.13081 -0.18562 0.23112 -0.0071941
on -0.070186 0.15274 -0.33086 0.11609 -0.17336 -0.1186 -0.26033 -0.25732 -0.25424 2.1744 -0.58533 0.1923 -0.21912 -0.14132 -0.30318 0.27442 0.053737 1.3326 -0.33961 0.13245 -0.011687 0.29352 0.15814 0.38337 0.33498 -0.094142 0.025341 0.037715 -0.0048971 0.36386 0.040932 -0.051188 -0.14557 -0.15078 -0.29911 0.10568 -0.43162 0.23783 -0.40836 0.067004 -0.32961 0.16481 -0.61208 0.10865 0.51402 0.093598 0.040137 -0.075552 -0.061653 0.24101 0.20612 0.35557 -0.26925 0.13492 -0.26603 -0.042859 -0.34983 -0.19393 -0.139 -0.24687 0.38211 0.15396 0.11271 0.39227 0.37262 -0.029871 -0.078348 0.13533 0.20053 -0.040988 0.51763 -0.1672 0.10849 -0.066263 0.33539 -0.20349 -0.0060679 -0.25021 -0.11447 0.092096 0.10335 0.18136 -0.082613 0.015608 0.13623 0.37399 0.085328 -0.059786 0.50908 0.44098 -0.1371 -0.20949 -0.19838 0.17075 0.017708 -0.060633 0.017311 -0.097675 0.14797 -0.32391 0.071086 0.23612 -0.262 -0.12026 -0.07813 -0.069083 -0.052542 0.026868 0.33614 -0.34025 -0.18974 -0.42294 0.23576 0.074527 0.39296 -0.36171 0.12294 -0.22299 0.39385 -0.08318 0.36118 0.36501 0.052356 -0.15403 0.15367 -0.13591 -0.5199 0.14502 0.19008 -0.57505 0.40054 -0.4856 -0.16852 -0.23749 -0.39897 -0.034135 0.3762 0.35281 -0.060511 -0.053663 -0.91063 -0.29587 0.13069 -0.022816 -0.031485 -0.018865 0.082726 -0.13078 0.095393 -0.088603 -0.32838 0.2328 0.2126 -0.47373 -0.69606 -0.025524 0.27181 0.4608 -0.25659 0.14652 -0.27128 -0.11555 -0.042916 -0.086319 0.17359 -0.093851 -0.19697 0.16909 0.47233 0.12367 0.15093 0.010047 0.017343 0.14631 0.030154 0.4627 0.14602 0.0047357 0.054487 0.12038 -0.0661 0.32342 0.20327 -0.096633 0.01186 -0.14425 0.33714 0.012951 -0.11801 -0.19729 -0.1369 0.11858 -0.21245 -0.08021 -0.30583 0.60707 -0.07167 0.51622 -0.37388 0.31573 -0.21255 -0.087917 -0.082767 0.96144 0.41898 -0.15271 -0.2572 -0.42049 -0.21564 0.049303 0.14532 -0.016763 -0.27325 -0.12089 -0.11887 0.49483 -0.49091 0.027468 -0.25469 0.020076 0.14192 0.0043306 -0.79448 -0.18651 0.28319 -0.72605 -0.076261 -0.091382 0.56002 0.3611 -0.095179 0.0076065 0.03334 0.366 -0.010639 -0.39696 0.030575 0.034592 0.14389 0.021152 0.23129 0.31393 -0.19558 -0.29173 -0.092003 -0.68977 -0.060591 -0.17502 -0.23999 -0.015641 -0.17448 -0.19483 -0.08446 -0.2684 0.0059415 0.2251 -0.064981 -0.027336 0.044675 -0.35042 0.25696 0.2968 0.22437 0.029845 0.17738 -0.088874 0.040426 0.10329 0.10673 -0.15837 0.015958 -0.21407 0.10097 0.046007 0.020979 -0.24182 -0.060037 0.16792 -0.0097223 0.62231 0.14792 -0.16206 -0.0093503 -0.21688 -0.092126 0.10743 0.18668 -0.051382 -0.37033 0.10152 -0.25956 -0.33837 0.33143 -0.34141 -0.069082 -0.074133 0.39836 -0.13735 0.1575 0.61553
... 0.0018209 0.24872 -0.085487 -0.2651 -0.077903 -0.040373 0.34495 -0.20052 -0.025265 1.5008 -0.15933 0.22853 0.31486 -0.26312 -0.22789 0.32552 0.10725 1.4896 -0.0093954 -0.023273 -0.024069 -0.33346 0.096113 -0.14246 0.54085 -0.14687 -0.096607 0.1508 0.39551 -0.14511 0.032693 0.04658 0.19911 -0.0082258 0.5587 0.033777 0.30058 0.019768 -0.067338 0.16224 0.040982 -0.20677 0.23582 4.3638e-05 0.03735 -0.13202 -0.15831 0.43089 -0.088053 0.39733 0.030608 0.00054839 0.30981 -0.2431 -0.45773 -0.15729 -0.23522 -0.19966 0.17919 0.22009 -0.27463 0.16472 0.061323 -0.0063424 0.27784 0.074449 0.2386 0.13253 -0.021142 0.45142 0.13681 0.099633 0.14277 -0.10781 0.019317 -0.29769 -0.095163 -0.3958 -0.40125 0.18941 -0.055415 0.083563 -0.045629 0.017183 -0.15215 -0.31828 0.045301 -0.29072 0.064429 0.21397 -0.2348 0.11689 -0.26235 0.40053 -0.23541 0.014116 -0.29619 -0.35895 0.021513 -0.31925 -0.17627 0.44686 -0.073948 0.097649 0.083795 0.51213 -0.33082 -0.31237 -0.27611 0.23149 0.23512 -0.12356 0.26987 0.11795 -0.056485 0.41827 -0.14576 -0.41656 -0.32667 -0.030574 0.031419 0.046108 -0.093987 0.23354 -0.12515 -0.29528 -0.11414 0.14284 0.4191 -0.23364 -0.48315 -0.53755 -0.16562 0.12493 0.015255 0.040895 -0.044186 0.0094774 -0.41145 -0.090121 -1.4604 0.4011 0.43011 0.040831 -0.34071 -0.37555 0.15482 0.56485 -0.36165 -0.29242 -0.25667 0.21161 0.21523 -0.22942 0.64858 -0.35609 0.13564 0.15208 0.22884 -0.42493 0.16344 0.31881 -0.26026 -0.12229 -0.33113 0.071869 -0.34604 -0.11771 0.55655 0.34089 -0.40228 -0.097464 -0.48097 -0.059841 -0.013486 -0.090672 -0.22413 -0.20372 0.03922 -0.10827 0.13266 0.035719 -0.39064 -0.30438 -0.085454 -0.1067 0.22338 -0.050032 0.52742 0.21867 -0.1201 -0.53119 0.086919 -0.017248 0.0356 0.0088269 -0.11525 -0.27615 0.13859 0.058099 -0.095913 0.082058 0.0033302 0.035617 0.067176 -0.17618 0.37037 0.036109 -0.039358 -0.30545 -0.36318 0.04261 0.24865 -0.075089 0.32569 -0.29138 0.249 -0.057815 0.12577 -0.1832 -0.19134 0.00344 0.0064191 0.59441 0.25188 0.10002 -0.57512 0.16218 -0.073365 0.19743 -0.19892 -0.17076 -0.050832 -0.087952 0.056516 0.32506 -0.062906 0.083001 -0.36074 0.14774 -0.014029 -0.10827 0.53976 0.040889 0.22264 -0.24744 -0.43748 0.0015153 0.11144 0.46156 -0.17919 -0.31038 -0.17054 0.35037 0.19029 0.22318 -0.020774 0.1308 -0.45071 0.017027 -0.31461 0.44142 0.28899 0.15109 0.004449 -0.28239 -0.19186 -0.18411 0.44212 -0.12365 -0.57139 0.044477 -0.34898 -0.0078118 -0.44048 0.48111 0.17401 -0.0040515 0.14037 0.60315 0.69215 -0.23401 -0.13861 -0.28445 -0.30161 -0.28527 0.2592 -0.019078 0.083507 -0.33077 -0.26792 -0.29172 -0.27149 -0.61505 0.32113 -0.060638 0.018884 0.014525 0.046544 0.1413
not -0.04983 0.02705 -0.38787 -0.25857 -0.019577 -0.046789 0.28764 -0.25563 -0.14337 2.8104 -0.0052332 0.040908 0.086203 0.0083425 -0.3447 -0.20269 -0.15394 1.1451 -0.2874 0.31633 -0.043195 -0.20848 0.018963 0.011215 -0.13868 0.095678 -0.37071 -0.23438 0.16899 -0.1445 -0.24882 0.003942 -0.023519 -0.037867 -0.19821 -0.058004 -0.018698 -0.051318 -0.12513 -0.092768 0.076318 0.3473 0.19565 0.10157 0.10805 0.038065 -0.06757 -0.17759 0.027277 0.10747 -0.43786 -0.043463 -0.090038 -0.11718 0.44626 0.10578 -0.10368 -0.4518 -0.03893 -0.10482 -0.055324 -0.30017 -0.094835 0.29518 0.1063 -0.037419 -0.13346 -0.094955 0.17721 0.011537 0.18141 0.23897 0.15566 -0.21294 0.20864 0.011149 -0.016061 -0.039162 0.18466 0.52838 -0.01167 -0.097992 -0.39746 -0.04526 0.088073 -0.38468 0.32909 -0.48774 0.47898 -0.14915 -0.33619 -0.011074 -0.25446 0.22186 0.27908 -0.19377 0.10935 -0.12359 0.18138 0.0054908 -0.065461 0.31657 -0.15914 -0.12485 0.24755 -1.1199 -0.22086 0.10682 0.037343 0.27176 -0.20963 -0.081427 -0.046002 -0.32776 0.022564 -0.18015 0.25811 -0.25556 -0.16467 -0.0905 -0.12548 0.14816 0.19352 -0.11602 -0.013502 0.013712 0.00099027 -0.68036 -0.069273 -0.060924 0.17024 -0.025483 -0.26621 -0.010625 0.0086921 0.044738 0.15685 -0.34682 0.09379 -0.19822 -1.2293 0.25126 0.37666 -0.034731 0.19878 -0.10144 0.044016 -0.16122 0.028975 -0.052773 0.24556 0.10868 -0.038647 0.21689 -0.026594 -0.18587 -0.27353 -0.18709 -0.093365 -0.017905 -0.085821 -0.098515 -0.070971 0.11615 -0.10819 -0.14019 0.071081 -0.18469 0.18881 -0.022614 0.11282 -0.11303 0.27997 -0.20154 0.17709 0.43365 0.22193 0.010922 -0.00090116 -0.023786 -0.024259 0.046858 -0.26261 -0.18016 -0.37123 0.03282 -0.12354 0.072563 0.26452 -0.02351 -0.018872 0.12683 -0.45364 0.059881 0.11362 0.09751 -0.072594 -0.11976 0.45824 0.42577 -0.031326 0.10294 -0.096147 -0.014582 0.23025 0.19911 -0.084175 -0.051044 0.33292 0.15768 0.074391 0.18989 0.16439 -0.34959 0.14126 0.065277 -0.18248 0.16694 -0.47675 -0.10721 0.078581 0.14303 -0.088569 -0.021546 0.15986 0.10505 -0.015615 0.065228 -0.13061 -0.075304 -0.16896 -0.015108 0.28748 0.18529 -0.048091 -0.098954 0.1226 -0.5042 -0.26704 0.072267 0.17241 0.077059 0.041611 0.26111 0.0038525 -0.40384 -0.11349 -0.10657 -0.23802 0.26293 -0.0054692 0.07821 -0.2561 -0.20714 -0.083626 0.12877 -0.023937 -0.25092 0.11987 0.14449 0.301 0.23678 0.038255 0.36099 0.036983 0.38049 0.24736 0.32123 0.71396 0.00018868 0.30268 -0.0091648 -0.082939 -0.24529 0.074714 0.15565 0.0049746 0.10614 -0.050173 0.28089 0.32046 0.036223 0.3546 -0.0046792 -0.31079 -0.04823 -0.17378 0.11647 0.36891 -0.066626 -0.33058 0.013051 -0.21748 -0.3322 0.26679 0.20888 -0.2785 -0.30358 0.27075 0.18046
by -0.15552 -0.33723 -0.097191 -0.21617 -0.30091 -0.014825 -0.055501 -0.028312 -0.64854 1.893 -0.056772 0.17062 -0.63128 0.039063 -0.49355 -0.67845 0.17266 1.17 -0.043622 -0.044675 -0.056084 -0.72703 -0.10162 0.43005 0.14374 -0.074174 -0.33236 0.28842 -0.11704 0.10521 0.099627 0.33434 -0.54069 -0.073547 -0.077814 0.032505 -0.00093332 0.353 0.18943 -0.40841 0.27317 -0.109 -0.009964 0.10401 0.10594 0.076474 -0.14849 0.047987 0.1036 -0.046399 0.15671 0.21278 -0.38093 -0.093375 -0.38804 -0.17406 -0.032507 0.014314 0.1992 -0.066915 -0.10672 0.21585 -0.62164 0.0035906 -0.21094 0.03703 0.33731 -0.077223 -0.059763 -0.43963 0.31009 -0.22205 0.058459 0.19276 0.61255 -0.95163 0.53651 -0.40198 -0.29058 0.04702 0.55323 0.25048 -0.51333 -0.512 0.041632 -0.37089 -0.043145 -0.1155 -0.37281 0.47959 -0.041738 0.10756 -0.015585 0.055004 -0.74831 -0.62378 0.25061 0.23813 0.19009 0.02051 0.042893 -0.044668 -0.082635 0.0611 -0.63611 0.32051 -0.32208 -0.32733 -0.11604 -0.14944 -0.30088 -0.98356 0.44567 -0.18604 -0.56057 -0.016285 -0.79768 0.12988 0.34309 0.45699 0.1831 0.40823 0.32532 -0.29476 0.13965 -0.25233 0.070025 0.4439 -0.30783 0.25258 -0.64103 -0.31084 -0.25237 -0.20172 -0.24098 -0.22921 0.16251 0.35055 0.081263 -0.36493 -0.56064 0.17065 -0.79262 -0.16579 -0.07894 0.1706 0.4003 -0.49483 -0.32587 -0.021023 0.062825 0.048781 0.045991 -0.54911 -0.097007 0.59897 -0.55677 -0.0013266 -0.74376 0.46287 0.19096 0.18797 0.083357 -0.41224 -0.21765 0.61719 0.41073 0.25436 -0.12414 0.078578 -0.030551 -0.48284 0.086345 0.30545 0.26693 -0.10942 -0.15056 0.22011 0.21464 0.3859 0.15365 0.13347 -0.026624 -0.32004 -0.42735 0.095854 0.13118 0.88173 0.52876 0.035028 -0.18786 0.19844 0.15396 0.16173 -0.30826 0.45861 -0.081368 0.63976 -0.084613 0.31904 -0.2539 0.1406 -0.24869 -0.11641 -0.018125 0.020463 0.12974 0.11797 0.29184 0.10107 -0.17047 -0.098261 -0.29903 -0.24117 0.20546 0.28265 0.35235 -0.16862 -0.062493 0.92172 -0.11347 0.062982 -0.096798 0.48641 0.36459 0.17806 0.028393 0.20372 0.3924 0.023698 -0.27612 0.32142 -0.22305 0.064924 0.065446 -0.058874 -0.068568 -0.037992 -0.2347 -0.40917 0.13658 0.11062 0.085836 0.24299 -0.0086981 -0.7638 0.42889 -0.47229 -0.25401 -0.18189 -0.12111 0.54179 -0.64063 0.18879 0.30521 0.75312 0.28471 -0.292 0.20645 0.063041 -0.081024 0.07024 -0.48189 0.49689 -0.083361 -0.29497 0.62981 0.21937 0.32334 -0.31465 0.11638 -0.14418 -0.26166 -0.3882 0.084871 -0.20341 -0.074558 -0.7623 0.45314 0.073782 -0.030277 0.028435 0.054771 0.025206 0.049895 -0.23581 0.25715 -0.10573 0.52171 -0.098388 -0.20208 0.24282 0.50489 0.42344 0.047595 -0.058269 -0.20867 -0.051586 0.062448 0.57837
-- -0.077991 0.40031 -0.082877 -0.083578 0.03762 0.27784 -0.17542 0.068649 -0.18903 2.0621 -0.11504 0.17317 0.23851 -0.32087 -0.30326 -0.17141 0.079578 1.0124 -0.61161 2.8387e-05 0.11825 0.032849 -0.071356 0.33765 0.34596 -0.31076 -0.025549 0.23636 0.23972 -0.041422 -0.27136 0.17759 -0.20771 -0.15376 0.47795 0.61557 0.1286 0.15884 -0.1284 0.60482 -0.16686 0.40434 0.64423 -0.027332 0.25985 -0.16289 -0.49784 0.050424 -0.057508 0.032653 -0.44877 0.2838 -0.16568 -0.22932 0.12016 0.24913 -0.14242 0.1738 -0.098918 -0.28738 0.0076815 -0.010008 -0.12195 0.69717 -0.2988 -0.080517 0.054344 -0.2691 -0.39182 0.19953 -0.0069643 -0.17916 -0.2976 -0.011758 0.39605 0.06192 -0.30977 0.33413 0.031653 -0.022673 -0.49188 0.030328 -0.28826 -0.0026412 -0.10644 -0.51852 -0.23184 -1.0809 0.30196 0.51217 -0.25105 0.39122 0.23895 -0.30906 0.02877 -0.16994 -0.24544 0.18728 0.11042 0.17222 -0.37173 0.50042 -0.3889 -0.030882 -0.028682 0.71451 0.3584 -0.21767 0.27567 0.37937 0.62201 -0.056192 0.094159 -0.28812 -0.20964 0.44802 0.014139 -0.062605 0.12097 -0.29494 -0.33991 -0.22039 0.11653 -0.031255 0.022175 0.17814 0.048832 0.39864 0.025188 -0.11419 0.032056 -0.20192 0.056921 0.10461 -0.24497 0.25187 -0.29997 -0.15518 -0.14657 0.054585 -0.46315 0.39934 0.24283 0.15188 -0.3715 0.34818 0.12552 0.21923 0.1481 0.081677 0.35023 0.16915 0.18587 0.31578 -0.0040679 0.14885 0.067787 -0.50869 0.52746 0.054669 -0.030947 -0.28297 -0.25586 -0.11696 -0.45261 0.13998 -0.26516 -0.23446 0.50686 0.14622 -0.1058 -0.10128 0.23696 -0.090468 -0.17156 -0.47603 -0.031099 -0.15715 -0.23505 -0.1827 -0.34821 -0.44826 -0.018081 -0.21039 -0.43641 -0.073858 -0.068082 0.17789 -0.32743 -0.053369 -0.35234 0.48586 0.24363 0.035284 -0.37084 -0.17143 -0.54649 -0.25964 -0.31271 0.46684 0.15333 -0.24871 0.0065879 -0.026462 -0.11599 -0.4999 0.089471 -0.70042 0.023322 0.12054 -0.31042 -0.58472 -0.090434 -0.22599 0.057923 -0.25913 0.18543 0.16337 -0.42195 -0.050031 -0.24783 0.66762 -0.35501 0.51654 0.012678 0.043495 0.035769 0.61734 -0.080472 0.08886 -0.041129 0.061821 0.42918 0.086525 -0.19676 0.46691 0.048309 -0.1211 0.33993 0.14817 -0.25285 -0.18009 0.27038 0.083811 -0.091499 0.25446 -1.0748 -0.41549 -0.095111 0.31147 -0.26659 0.73763 -0.44737 -0.11509 -0.39337 0.3901 0.24896 -0.1531 -0.074612 0.24015 -0.076129 0.1495 -0.35484 0.18505 -0.099603 -0.1061 -0.057291 0.037991 0.31918 -0.25701 -0.33885 0.16685 -0.025879 -0.42584 -0.34978 -0.48036 0.46319 -0.14945 0.09718 0.049414 0.096197 -0.39105 -0.085168 -0.81981 0.27056 -0.43112 0.15902 -0.0073946 0.45637 -0.15608 -0.37943 -0.036845 -0.16956 0.085173 -0.41595 0.062713 0.056683 -0.17852 0.21628 -0.20944
are -0.19859 -0.062818 -0.36614 -0.41786 0.20962 -0.26728 0.246 0.12783 -0.045845 2.5253 0.35196 0.093547 0.086572 -0.11929 -0.062435 -0.19257 -0.11778 1.4466 -0.59561 -0.077901 -0.31325 -0.16534 0.05263 -0.17153 -0.073093 0.055853 -0.29391 -0.20245 0.078067 -0.079952 -0.15609 -0.065692 -0.05953 -0.024957 0.10387 0.25788 -0.22031 -0.093548 -0.01846 -0.09756 -0.38753 0.25543 -0.13435 0.29886 0.15247 0.037282 -0.031605 -0.33455 0.089668 0.031383 -0.18052 -0.13498 -0.2551 -0.17485 0.069063 -0.20492 -0.090552 -0.015462 -0.27715 0.18137 0.15946 -0.20871 -0.2764 0.32727 -0.057257 0.17983 0.012767 0.38424 0.15904 -0.014411 -0.037496 0.19035 0.83132 -0.049976 0.32581 -0.27539 0.23839 -0.16074 0.31318 0.39318 -0.011906 0.18941 -0.62434 -0.1962 0.084431 -0.31681 -0.19476 0.063256 0.29791 0.0058014 -0.18599 -0.050573 0.22501 -0.08463 0.29137 0.19095 -0.077498 -0.11786 -0.084965 -0.4056 -0.16787 0.26494 -0.092399 -0.063162 0.33635 -0.89221 -0.35094 -0.20511 0.016163 0.42652 -0.23077 -0.22797 0.27599 -0.36401 -0.077786 -0.084522 -0.073139 0.16219 -0.44129 0.30587 -0.088139 -0.013012 0.075655 -0.23323 0.44425 -0.094221 0.55523 -0.15091 -0.10427 -0.19482 0.54779 0.085892 -0.24777 -0.06249 0.32472 0.2996 -0.24348 -0.41019 0.057845 0.34885 -0.71639 0.23031 0.19442 -0.27706 0.20996 -0.12619 0.10679 0.021386 0.35037 -0.13114 0.17483 -0.26907 0.0028734 0.010407 -0.32918 0.19959 -0.3375 0.071719 -0.26644 -0.41965 0.64129 -0.06847 -0.19266 0.038926 0.093084 -0.31762 0.25233 -0.39757 0.13258 0.071091 0.22379 0.15001 0.42411 0.19575 -0.21759 0.026757 0.13422 0.31467 0.34345 0.010293 0.11824 0.45155 -0.3697 -0.13294 -0.35528 -0.17031 -0.019912 -0.10421 0.26896 0.417 0.38751 0.094275 -0.083527 -0.23074 -0.22564 -0.079475 0.11576 0.25639 0.074124 0.38114 0.17028 -0.3204 0.48119 -0.0034888 0.37514 -0.32735 -0.22277 0.27504 0.031611 -0.20505 0.20774 0.21391 0.041449 -0.33708 -0.16771 0.14796 0.12524 0.15517 -0.4561 -0.18143 -0.17103 0.22032 0.17129 -0.013799 0.2858 0.0077815 -0.26555 0.047889 -0.35453 -0.20062 -0.28761 -0.15749 0.23978 0.1443 0.034296 -0.067145 -0.0084247 -0.72342 -0.28056 0.28881 -0.10604 0.32818 -0.34098 0.046492 -0.26373 -0.003864 -0.62803 -0.25992 -0.21455 0.32562 -0.1583 -0.026258 -0.149 0.038496 -0.11265 0.21799 0.21322 0.21233 -0.14936 0.32087 0.47036 -0.030532 -0.32338 0.33519 -0.10904 0.49285 0.26666 0.30611 0.76091 0.13531 -0.50232 -0.23408 -0.39777 -0.15196 -0.046528 -0.21586 0.019041 0.49533 0.18254 0.2171 0.49369 0.31384 -0.23158 0.05532 0.069754 0.10005 -0.087884 -0.13244 0.27741 0.16755 -0.55506 -0.047766 -0.17413 -0.1687 0.089732 0.52814 -0.11219 -0.58451 0.27879 -0.26205
about -0.23365 0.72915 -0.32268 0.10265 0.097069 0.26378 -0.11787 0.2242 0.13761 2.5132 -0.24187 -0.033395 0.053606 -0.20693 -0.49991 -0.10281 -0.1358 0.63439 -0.41981 -0.4445 0.40104 -0.01223 0.013787 0.045877 0.12903 -0.23137 -0.047404 0.1535 0.14786 -0.30909 0.080865 0.34524 0.092811 0.093254 0.30381 -0.069964 -0.28352 0.32062 -0.028347 0.14437 0.058551 0.19101 -0.35737 -0.016893 0.14724 0.34683 -0.31645 -0.17592 0.10068 -0.24083 -0.55202 0.05662 -0.22414 -0.29119 -0.013252 -0.038021 -0.072205 -0.1118 0.095104 0.11765 0.35373 -0.21498 -0.2096 0.3903 0.073573 -0.65524 -0.023857 0.44775 -0.36403 0.17396 -0.069853 -0.23164 0.45127 0.16189 0.62457 0.37666 0.12862 -0.27648 0.051071 0.22013 0.36354 0.018207 -0.16525 -0.13361 -0.032025 -0.27609 -0.67497 -0.6103 0.44466 0.25855 -0.36765 -0.34775 -0.4113 -0.17961 -0.14843 0.069513 -0.32662 -0.011454 0.13232 -0.47187 0.12947 -0.019676 -0.18904 -0.24449 0.27926 -0.56272 0.027026 0.079741 -0.079456 -0.11585 0.12509 -0.33801 0.24562 0.2098 -0.080678 -0.2654 -0.45732 -0.075925 0.36798 0.12611 0.26979 -0.44165 -0.15739 -0.26736 0.54204 0.13597 -0.33115 -0.25162 0.21895 -0.37249 -0.22208 -0.031372 -0.21314 -0.09768 0.14355 -0.27166 -0.084859 0.47425 0.095865 0.10472 -1.4395 -0.25779 -0.042117 0.34489 -0.33694 -0.010532 -0.2651 0.37266 0.012467 0.022639 0.29379 -0.20039 -0.021733 -0.50064 -0.42929 0.20032 0.28717 -0.23935 -0.15378 -0.073318 -0.15389 -0.11059 -0.24538 -0.14515 -0.032676 0.29802 -0.0017268 -0.2197 0.077918 -0.15888 -0.13494 0.018054 0.30364 -0.13565 -0.28485 0.047053 -0.0053989 0.27997 0.53074 -0.12546 0.20377 -0.26421 0.12669 -0.13225 -0.0030167 -0.0064416 -0.048293 0.019329 0.085869 0.40842 0.25965 -0.050458 -0.34948 0.21275 -0.28479 0.025267 0.49408 0.073052 -0.11483 0.08645 0.51028 -0.19598 -0.11786 -0.18703 -0.058678 0.18724 0.37104 0.056816 0.034961 0.065072 -0.37826 -0.25035 0.025876 -0.42614 -0.060101 0.27154 -0.23401 0.18142 0.060353 -0.084387 0.30489 0.32442 0.039268 -0.098768 -0.26484 -0.19108 0.020264 -0.1461 -0.050936 -0.11686 -0.088839 0.26429 0.31467 0.0053299 0.10126 0.07066 -0.019287 0.25941 -0.20396 0.28528 0.19535 -0.093914 0.081325 -0.15728 0.056421 0.12892 -0.049362 0.0041448 -0.19369 -0.2675 0.17362 -0.36052 0.2704 -0.060174 0.027607 0.41602 -0.044364 -0.21985 0.070874 -0.077737 0.39411 0.2019 0.19058 0.39497 0.33766 -0.28725 -0.056121 0.22279 0.47983 -0.058882 0.24774 0.01362 -0.35964 -0.44914 -0.21214 0.093784 0.16939 -0.21674 -0.17643 -0.087987 -0.011255 0.4602 0.26943 -0.17445 -0.06749 -0.0705 0.076087 -0.15343 -0.24393 0.18928 -0.052297 0.075055 0.050848 -0.10537 0.089339 0.06535 -0.36491 0.11614 0.094537 0.2698
has 0.08552 0.50152 0.11266 -0.18826 0.031677 -0.071113 0.050192 -0.35728 -0.099622 2.8373 0.086855 -0.25438 -0.21734 -0.42633 -0.16354 -0.17934 0.084385 0.93851 -0.012203 -0.011707 -0.3742 -0.17454 0.08119 0.12022 0.24603 0.25672 -0.043428 -0.090614 -0.26686 -0.0079325 -0.046609 0.14579 0.15094 -0.10998 -0.018991 -0.035244 0.05311 -0.12884 -0.1027 -0.29668 0.35315 -0.11833 0.41792 -0.13986 -0.084957 0.13517 -0.35495 -0.21202 -0.086241 0.065012 -0.29758 -0.012614 -0.034377 0.053019 0.12955 -0.018199 0.052818 0.087107 0.3456 -0.409 -0.10121 0.050041 -0.0035056 0.52307 0.031427 -0.17735 0.022926 -0.065055 -0.061981 0.011794 -0.098708 0.088348 0.040219 -0.0048762 -0.41729 -0.11714 0.087954 -0.18609 -0.10958 0.4271 0.12945 -0.061123 -0.35925 0.068195 0.0027888 -0.38928 -0.38928 -0.23107 0.31737 -0.10503 0.33154 0.15447 -0.18044 0.087718 0.27379 -0.033224 -0.046411 0.31346 -0.060112 0.13314 -0.2929 0.14728 -0.33111 0.089051 -0.04406 -0.59566 0.0024168 0.048135 -0.29908 -0.13532 -0.21547 0.43372 -0.23357 0.054953 -0.17827 0.11755 0.032843 0.2549 0.28983 -0.43993 -0.20254 0.18057 0.50974 -0.19325 0.018178 0.10884 -0.19809 -0.5106 -0.14976 -0.17169 -0.076242 0.14444 -0.062016 0.12333 0.50751 0.064684 -0.11698 0.149 -0.15991 -0.18153 -0.74574 0.12643 0.45468 0.52155 0.24757 -0.24667 -0.088258 -0.035252 0.18894 0.038104 -0.23332 0.10418 0.40369 0.16539 -0.34644 -0.30475 -0.18466 0.13073 0.12264 -0.0649 0.27915 0.045611 0.073443 -0.07811 -0.075495 -0.0027376 -0.048082 -0.53042 0.0057739 -0.28733 -0.34884 0.038433 -0.043806 -0.18595 -0.53049 0.01386 0.38126 0.10821 -0.04316 0.0015481 0.042285 0.22027 -0.2829 -0.13161 -0.5829 -0.26757 -0.035731 0.30715 -0.31758 0.14088 -0.30866 -0.15192 -0.50881 0.67089 -0.050473 -0.20517 -0.039877 0.081565 -0.078496 0.39741 -0.17607 -0.18357 -0.25209 -0.051758 0.20135 -0.041067 -0.20807 0.068346 -0.31643 -0.34016 -0.42626 0.057113 -0.16436 -0.24691 0.39083 0.26997 -0.25465 -0.21253 -0.067337 0.053504 -0.60977 0.12371 0.075674 0.09408 0.21882 0.17969 0.34544 -0.079757 0.057308 0.28599 -0.0014657 0.088384 -0.051422 0.10151 0.36618 -0.16076 0.10621 -0.15778 -0.17654 0.12545 -0.20168 -0.030981 0.05937 0.37191 0.038478 -0.16424 -0.17695 -0.32465 -0.15088 0.10286 -0.04591 -0.42779 0.51119 0.10071 0.13522 -0.16268 0.0017254 -0.073344 0.043838 -0.14401 0.4949 0.049248 -0.32334 0.24137 0.1684 0.27654 -0.010047 -0.47676 0.48311 -0.089994 0.15841 0.059905 -0.3496 -0.19531 -0.0029718 -0.03875 -0.093551 0.015752 0.46043 0.0043604 0.18712 0.61147 0.042452 0.049746 -0.2055 -0.011099 -0.029691 0.27995 0.15612 -0.051192 -0.27121 -0.06217 -0.0071744 0.036467 0.26112 -0.18921 -0.052768 -0.15508 0.042269 0.01449
more -0.39717 0.30269 -0.18428 -0.065407 0.19637 -0.058685 0.03779 0.29643 0.011542 2.2009 -0.046806 -0.0071777 -0.11853 -0.41681 -0.20386 0.12567 0.0032915 1.3143 -0.47148 -0.11948 -0.25665 0.10156 0.1302 -0.70407 -0.074254 -0.017186 0.017362 0.15262 0.51837 -0.36875 -0.040545 -0.046352 0.0079905 -0.30805 0.60676 -0.13668 -0.26167 0.23586 0.1359 -0.084004 -0.12044 0.013398 0.37747 0.04795 -0.077707 0.0030638 -0.010368 0.3106 0.10559 0.039321 -0.46871 0.13819 0.25762 -0.23689 0.056828 0.14335 -0.31491 0.012502 0.04193 -0.14981 -0.015684 -0.034712 -0.29339 0.10509 0.39542 0.090509 0.03177 0.34126 -0.012346 0.10817 0.3935 -0.12911 0.36788 -0.32788 0.20659 0.26526 0.24031 -0.055204 0.24409 0.19196 0.31567 -0.00027222 -0.17144 -0.10579 0.060718 -0.4636 -0.47574 -0.072808 0.41251 -0.16797 -0.1709 0.1818 -0.14701 0.17053 -0.28394 0.18387 -0.30619 -0.037799 -0.06507 -0.33411 -0.2969 0.040037 -0.42597 0.14479 0.24824 -0.91859 0.065629 -0.069026 -0.18103 0.30971 0.3374 -0.40303 0.39363 0.28098 -0.062029 0.027562 -0.15906 -0.098168 -0.082326 0.19706 0.062243 -0.11697 -0.03935 -0.17867 0.071452 -0.09987 -0.19139 0.014867 0.11249 0.15257 -0.20604 -0.30006 -0.24557 -0.17195 -0.013581 0.09027 -0.0011748 0.10939 -0.30143 -0.2429 -1.0601 0.47048 0.26661 0.3199 -0.06892 -0.43549 0.05848 0.078793 -0.032573 0.079128 0.35986 0.15548 0.27831 -0.017252 -0.20918 -0.35258 0.046731 0.13742 -0.07699 -0.44962 0.12505 -0.035866 -0.25669 -0.05931 -0.17364 -0.12862 0.060673 -0.21053 0.18982 -0.25956 0.0065924 0.21168 0.4024 -0.12569 0.03017 -0.039046 -0.14322 0.085881 0.21439 0.21371 0.34858 0.17856 0.16507 0.10684 -0.055776 0.17173 -0.042608 -0.23026 0.17324 0.40945 0.054936 -0.14126 0.17584 0.35269 -0.14008 0.16765 -0.12073 0.13173 -0.17618 -0.032971 0.24377 -0.22296 0.038536 0.073272 -0.16697 0.20511 0.10608 -0.15212 -0.11673 0.022578 -0.32021 -0.1139 0.18802 -0.80663 -0.04993 0.16832 0.20966 0.15715 0.062531 -0.055321 0.33568 0.23106 0.10687 0.19227 -0.14268 -0.16194 -0.34164 0.07149 -0.023261 0.066258 -0.061421 -0.097742 0.26125 0.23674 0.50339 0.15137 0.016634 0.054201 0.046368 0.16203 0.080432 -0.057483 -0.17973 0.27417 0.5961 -0.055128 -0.42134 0.027298 -0.18139 0.049412 0.03838 -0.074166 0.11778 0.25909 -0.058223 0.68369 0.23417 -0.22659 -0.12304 0.33775 0.050683 0.30538 0.069409 0.44904 0.18541 -0.31187 -0.06544 -0.024955 0.30931 -0.010762 -0.021314 0.071037 -0.19061 -0.69329 -0.19043 0.41374 0.49264 0.15126 -0.21175 0.45331 0.30944 0.45539 0.10071 -0.27236 0.039942 0.071653 -0.058242 -0.33526 0.092566 -0.033081 -0.6025 -0.24474 0.091176 -0.28201 0.13939 -0.10175 -0.22764 -0.35103 0.31035 0.36604
than -0.39611 0.18991 -0.020033 -0.39995 0.19013 -0.1952 0.17977 0.18693 0.097576 2.6032 -0.098194 0.13384 0.059189 -0.10991 -0.14721 0.018844 0.14202 1.0236 -0.29939 -0.18452 -0.23512 0.1406 -0.01463 -0.29891 -0.14654 -0.2015 -0.24721 -0.12147 0.40998 0.17997 0.022555 0.13101 0.025632 -0.2056 0.27974 -0.16087 -0.45666 0.035454 0.28487 -0.025985 0.05967 0.42833 0.18573 0.31357 0.066385 -0.16109 -0.2546 -0.17968 0.25063 -0.07526 -0.49286 -0.039815 0.07859 -0.63624 0.29654 -0.041694 -0.1957 -0.13311 0.0083527 0.14585 0.16051 -0.21103 -0.25591 0.26947 0.14012 -0.32852 -0.020914 0.44786 -0.17867 -0.14343 -0.14009 -0.12388 0.32348 0.2072 0.034951 0.40231 0.12215 -0.0029297 0.47427 0.67283 0.15809 -0.10451 0.12884 -0.012329 -0.022863 -0.48807 -0.086677 -0.38016 0.21079 -0.19086 -0.34157 0.083709 -0.061047 0.23483 -0.33916 -0.23521 0.077611 0.26241 0.21803 -0.24784 -0.0050408 0.2137 -0.45606 0.12958 0.13639 -1.3849 -0.050766 0.10557 -0.071509 -0.0074902 0.35986 -0.42616 0.16349 0.32899 -0.11166 0.13481 -0.065492 -0.18838 0.26036 0.14429 0.11374 -0.044058 -0.11435 -0.26092 -0.08642 -0.035172 -0.16137 -0.26449 0.12914 -0.046956 -0.14506 0.067596 0.001457 0.11658 0.072091 -0.019752 0.065686 -0.12881 0.0201 0.03387 -1.2721 0.33736 0.15468 0.16864 -0.14925 -0.31522 -0.072084 -0.073086 0.22582 0.13571 0.26704 0.043565 0.29107 0.25527 -0.2332 -0.54234 -0.19699 0.098798 0.23468 -0.30155 0.015354 0.016804 -0.19261 -0.17362 -0.26247 -0.050517 0.10493 -0.26726 0.22454 -0.062491 0.36552 -0.0087983 0.37493 -0.13302 -0.14381 0.031816 -0.11457 -0.2387 -0.038804 -0.18779 0.08113 -0.075949 -0.21527 -0.25505 -0.25003 0.27867 0.0022528 -0.031714 0.52544 0.19178 0.092228 0.20027 0.046665 0.27676 0.16409 0.10051 -0.051039 0.086986 -0.24146 -0.28934 0.37772 -0.3616 0.021554 -0.29611 -0.082101 0.13884 0.017859 -0.44492 -0.077077 0.15706 -0.42171 -0.12448 -0.12973 -0.5012 0.38498 0.037403 0.064491 0.042855 0.19888 0.077499 0.42656 0.36117 -0.28741 -0.20071 0.059944 0.0096104 -0.1114 0.16367 0.18827 0.038424 -0.16779 -0.10935 0.49159 0.056922 0.23931 0.1747 0.31663 0.077896 -0.15517 0.05321 0.19466 -0.11554 0.082835 0.481 0.075369 -0.090045 0.11138 -0.1515 -0.33591 0.065329 0.11761 0.064364 0.2598 0.21592 -0.064106 0.83759 0.275 -0.1757 0.26806 0.11261 0.19798 0.046893 0.018697 0.20794 0.25966 -0.035889 0.17398 0.0050841 0.41372 0.083836 0.24119 -0.16179 0.060498 -0.54508 -0.25946 0.17419 0.29151 0.071809 0.01038 0.25763 0.12851 0.29001 0.27851 -0.27563 0.19428 -0.32471 0.034152 -0.26303 0.098993 0.24106 -0.44841 0.050023 0.090994 -0.16102 -0.17943 0.035682 -0.29319 -0.38674 0.085543 0.10899
from 0.01332 -0.051085 -0.13207 0.40386 0.21135 0.12458 -0.020501 0.019352 0.031385 2.382 -0.12278 0.30948 -0.044297 -0.23575 -0.073075 -0.014419 -0.10464 1.1879 -0.016253 -0.20873 -0.0019058 -0.2101 -0.34955 0.16284 -0.25075 -0.026931 -0.17934 -0.14671 -0.39087 0.075389 0.14738 0.30458 -0.45448 0.16111 -0.13623 0.28376 -0.86792 -0.026626 0.53111 -0.11152 0.092393 0.57412 -0.32504 0.19566 -0.10147 0.35525 -0.07085 0.064315 -0.42785 -0.03941 0.054607 -0.15695 -0.16468 -0.010081 0.23987 0.13416 -0.068337 -0.27125 -0.15065 -0.2152 0.075091 0.023054 -0.11103 0.065783 0.083886 0.050088 0.14423 0.21073 0.17828 0.47526 -0.204 0.43281 0.31418 0.24671 0.3471 -0.42142 -0.086014 0.46427 -0.1672 -0.01983 0.42762 0.21162 -0.0023134 -0.20598 0.39772 -0.24585 -0.197 -0.11362 0.0098633 -0.32914 -0.16686 0.16385 -0.013069 -0.12742 0.031968 -0.19219 0.11218 -0.3052 -0.18899 -0.27793 0.25688 0.34455 -0.29239 0.19828 -0.13338 -0.2935 -0.074996 0.43457 0.41073 -0.016351 -0.33868 -0.56156 0.35863 0.2744 -0.62004 0.20933 0.019818 0.42142 0.44315 0.44281 -0.055721 0.29579 -0.011843 -0.63053 0.044067 0.089875 -0.062888 0.4317 0.034173 0.16396 -0.003599 0.14025 -0.17326 0.38573 0.11435 -0.080741 -0.48224 0.19204 -0.097623 0.11072 -0.65006 -0.08012 0.10006 -0.27905 -0.34653 -0.023659 -0.043227 -0.12558 0.2503 -0.02725 0.041448 -0.36636 -0.12933 -0.42565 0.22789 -0.17567 -0.10643 0.39465 0.18353 -0.085965 0.17449 -0.096645 0.037148 0.039433 -0.16974 0.28706 -0.02052 0.22625 0.22635 -0.21684 0.21906 -0.16647 0.21254 -0.088225 -0.26603 0.15967 -0.28641 0.16088 0.20127 -0.10922 -0.28803 -0.01927 0.29473 -0.24125 0.39971 -0.3489 -0.17225 -0.007797 0.32724 0.2643 -0.040614 0.26598 0.12712 0.19982 0.1793 0.23115 -0.043671 0.31634 -0.067709 0.15573 -0.14524 -0.37133 -0.0031789 0.42069 0.77307 0.11504 0.4835 0.076817 0.26149 -0.2053 -0.057982 -0.25109 -0.013815 0.012281 0.18895 0.061122 0.28994 0.54462 -0.28382 -0.0022778 -0.22453 -0.20627 -0.14783 0.0077257 -0.12629 -0.13455 -0.01295 0.42625 0.14469 0.51193 0.059943 -0.14552 0.34321 0.034896 -0.088597 0.022827 -0.039906 -0.11249 0.25096 -0.032177 0.12423 0.40481 -0.05493 -0.041266 0.081323 -0.095104 -0.31127 -0.10932 -0.01715 0.29535 0.29719 0.031528 0.14671 0.053238 0.60434 0.61835 0.30266 0.042506 -0.0015549 0.078835 -0.18831 0.26572 0.040774 -0.067121 0.06113 -0.31181 -0.18429 0.50146 -0.074276 -0.49609 0.12718 -0.12494 -0.062967 0.070392 0.12402 -0.23929 0.34852 0.20923 -0.22398 0.063449 -0.29811 -0.23132 -0.21527 -0.29219 0.37135 -0.17902 0.35674 -0.1275 -0.031836 -0.16753 -0.22927 0.11836 0.25453 0.12155 -0.25274 0.021495 -0.17739 0.063989 -0.53006 0.19005
